\data\
ngram 1=2886
ngram 2=25348
ngram 3=31456

\1-grams:
-4.3335557	<unk>	0
0	<s>	-0.35318032
-1.6599244	</s>	0
-2.41427	要	-0.22829579
-3.0890164	想	-0.11968893
-4.0886145	扶	-0.07531134
-3.1571906	优	-0.119951814
-4.0886145	汰	-0.07531134
-3.7364593	劣	-0.07531134
-3.133257	首	-0.17656074
-3.068479	先	-0.14286035
-3.1571906	解	-0.1696298
-3.0890164	决	-0.19594732
-3.4194012	谁	-0.12945819
-1.7212118	的	-0.2266249
-3.048869	问	-0.22823742
-3.7364593	题	-0.095346175
-3.6518693	判	-0.16853401
-3.0121207	定	-0.10692257
-3.238096	必	-0.28639528
-3.9806423	须	-0.07531134
-2.6663508	得	-0.111873046
-2.1718366	有	-0.19173488
-2.0014238	一	-0.35924995
-2.978241	个	-0.11555564
-3.9806423	衡	-0.07531134
-3.2688003	量	-0.10809824
-4.0886145	尺	-0.07531134
-2.536769	子	-0.14445932
-2.716858	说	-0.09928135
-2.9468138	完	-0.26178616
-2.3522112	我	-0.26427543
-3.4669106	赶	-0.101541445
-3.4194012	紧	-0.15033539
-2.931914	走	-0.13573155
-2.5867066	出	-0.17829707
-3.1105738	门	-0.1067381
-2.7444997	去	-0.18663573
-3.5811	庆	-0.07531134
-3.1105738	才	-0.11625152
-2.6743712	被	-0.108061224
-3.7364593	埋	-0.07531134
-2.530912	到	-0.16247092
-3.2688003	土	-0.08968764
-2.763956	里	-0.16745476
-4.1774764	尸	-0.07531134
-3.520263	骨	-0.07531134
-3.0301063	未	-0.114537634
-3.520263	寒	-0.14411968
-3.3018415	啊	-0.092620924
-3.4669106	再	-0.0753113
-2.3679128	和	-0.10025578
-2.650741	家	-0.12985662
-3.8416104	珍	-0.07531134
-2.542706	下	-0.15690576
-2.635673	就	-0.1779424
-3.4669106	稳	-0.19443887
-2.214593	不	-0.23723419
-3.0301063	住	-0.13202326
-2.763956	自	-0.31559098
-4.0886145	己	-0.0753113
-2.2406323	了	-0.22087649
-2.8167903	村	-0.12969306
-3.3018415	支	-0.11064906
-2.890056	部	-0.19638069
-3.0121207	书	-0.1303224
-3.3376052	记	-0.11328673
-4.1774764	嘎	-0.07531134
-3.9806423	玛	-0.07531134
-3.238096	罗	-0.12945814
-3.238096	布	-0.07531134
-3.520263	雪	-0.07531134
-3.520263	灾	-0.101541445
-2.5736737	时	-0.160545
-3.3765802	圈	-0.11023742
-3.6518693	窝	-0.119951814
-2.931914	种	-0.12518384
-3.0890164	草	-0.08484245
-3.238096	维	-0.12586887
-3.3765802	持	-0.09388409
-3.238096	半	-0.12902832
-2.7843251	月	-0.1633165
-3.3765802	否	-0.14356396
-3.133257	则	-0.08561404
-3.1571906	损	-0.28039986
-3.7364593	失	-0.0753113
-2.9948506	更	-0.11296155
-2.384203	大	-0.16010189
-2.5933728	王	-0.09847199
-2.978241	位	-0.1344272
-2.5548296	后	-0.124884285
-2.7948794	还	-0.21567452
-3.3765802	众	-0.07531134
-4.1774764	猴	-0.07531134
-3.0890164	推	-0.13679704
-3.520263	怒	-0.1083542
-3.238096	江	-0.07531134
-3.9806423	淹	-0.07531134
-3.133257	死	-0.18728401
-2.7258778	所	-0.18273188
-2.5610204	以	-0.13604626
-3.2688003	叫	-0.092620924
-3.6518693	葬	-0.07531134
-3.8416104	滩	-0.07531134
-2.716858	能	-0.13436222
-2.252726	在	-0.15124771
-3.2688003	绿	-0.092620924
-4.0886145	茵	-0.07531134
-2.9175084	场	-0.110185474
-2.348373	上	-0.19870155
-3.238096	像	-0.07531134
-2.9468138	队	-0.11511949
-2.890056	员	-0.120015554
-3.133257	样	-0.115225956
-3.5811	奔	-0.11328673
-3.1571906	跑	-0.14717634
-3.9806423	拚	-0.07531134
-3.8416104	搏	-0.07531134
-2.3800728	用	-0.13836716
-2.9948506	其	-0.10701002
-2.5867066	他	-0.20954289
-3.1571906	形	-0.16556473
-3.520263	式	-0.119951814
-2.3522112	为	-0.14828293
-2.423257	中	-0.230313
-2.6211104	国	-0.18713291
-3.4669106	足	-0.123668015
-3.1571906	球	-0.13993311
-2.6211104	发	-0.29070246
-3.5811	展	-0.0870381
-3.3018415	波	-0.091518596
-3.7364593	助	-0.07531134
-4.0886145	澜	-0.07531134
-2.9468138	眼	-0.12526946
-3.133257	楼	-0.102966845
-2.4973376	越	-0.20539811
-3.520263	盖	-0.1083542
-2.7740211	高	-0.10886701
-2.7350888	多	-0.13994597
-4.0886145	漂	-0.07531134
-3.5811	亮	-0.10455614
-2.6908705	可	-0.20986387
-2.246637	人	-0.24160565
-2.8056967	心	-0.14919116
-2.978241	却	-0.11064906
-2.340797	是	-0.1421578
-2.542706	来	-0.17932701
-2.864236	没	-0.37084264
-3.3376052	底	-0.07531137
-2.763956	儿	-0.14973803
-3.520263	墙	-0.07531134
-3.1105738	根	-0.246273
-3.4194012	脚	-0.0753113
-2.763956	往	-0.16176149
-2.890056	光	-0.1089197
-4.0886145	溜	-0.07531134
-3.5811	孩	-0.46694925
-3.068479	们	-0.11979001
-3.4194012	靠	-0.09909031
-3.1571906	玩	-0.11527554
-4.0886145	耍	-0.07531134
-3.520263	磨	-0.18218553
-2.5736737	成	-0.22390957
-3.9806423	贪	-0.1697121
-3.8416104	污	-0.07531134
-3.8416104	挪	-0.14411968
-3.9806423	捐	-0.07531134
-3.8416104	赠	-0.14411968
-4.1774764	赈	-0.07531134
-3.238096	款	-0.07531134
-2.864236	物	-0.14155926
-3.9806423	触	-0.07531134
-3.3376052	犯	-0.095346175
-2.9948506	法	-0.12379922
-3.7364593	律	-0.119951814
-2.7948794	行	-0.13807356
-3.133257	按	-0.1711646
-3.3376052	照	-0.12235278
-3.9806423	刑	-0.07531134
-3.1825206	第	-0.28542674
-2.9622433	百	-0.24115255
-2.5194297	二	-0.31079108
-2.716858	十	-0.45057717
-2.9175084	六	-0.22486204
-3.20942	条	-0.15903082
-3.1571906	规	-0.28655317
-3.0301063	严	-0.20991166
-3.9806423	肃	-0.07531134
-3.1825206	处	-0.098817
-3.0121207	理	-0.11715416
-3.0890164	曾	-0.11942616
-3.238096	额	-0.11960133
-2.9622433	回	-0.1104432
-3.8416104	扣	-0.07531134
-3.3765802	暗	-0.119951814
-3.0890164	送	-0.08604869
-3.5811	礼	-0.24999149
-3.0301063	品	-0.14677155
-3.0121207	向	-0.104330614
-3.4194012	销	-0.12881353
-3.7364593	伪	-0.07531134
-2.9175084	药	-0.1389127
-3.1571906	次	-0.07531134
-3.8416104	辞	-0.07531134
-4.1774764	拒	-0.07531134
-3.4669106	绝	-0.19443887
-4.1774764	氟	-0.07531134
-3.9806423	碳	-0.07531134
-3.068479	化	-0.0930224
-2.9622433	合	-0.1292739
-4.0886145	螃	-0.22592057
-4.1774764	蟹	-0.07531134
-4.1774764	螯	-0.07531134
-2.7948794	那	-0.1865986
-3.9806423	够	-0.07531134
-2.931914	把	-0.09483391
-3.7364593	氧	-0.16853401
-3.0121207	抓	-0.15101364
-2.876954	体	-0.20335373
-3.0301063	气	-0.1264301
-3.1825206	放	-0.11748435
-2.754119	进	-0.19114336
-2.8281748	特	-0.22251822
-2.8167903	原	-0.21788923
-3.238096	反	-0.102966845
-2.7258778	应	-0.20725383
-2.6908705	同	-0.18361138
-3.20942	围	-0.098817
-3.9806423	绕	-0.07531134
-3.3018415	源	-0.10455614
-2.7948794	头	-0.12330617
-3.3018415	服	-0.19112387
-3.1105738	务	-0.1306075
-2.9468138	重	-0.17927185
-3.048869	点	-0.1529736
-3.4194012	宣	-0.32082123
-3.133257	传	-0.11757278
-3.8416104	积	-0.12945819
-3.7364593	极	-0.07531134
-2.6584759	开	-0.20868233
-2.8398657	工	-0.26583636
-2.763956	作	-0.18040247
-3.520263	取	-0.101541445
-3.3376052	较	-0.11635025
-2.7843251	好	-0.12595649
-3.3765802	效	-0.14411968
-3.3018415	果	-0.0959282
-2.864236	如	-0.16038308
-3.520263	何	-0.07531134
-3.2688003	提	-0.24726355
-3.20942	少	-0.08417839
-3.6518693	读	-0.16853401
-3.20942	质	-0.16853406
-3.8416104	宋	-0.07531134
-3.9806423	龄	-0.07531134
-2.340797	也	-0.25417566
-3.1105738	很	-0.1067381
-3.8416104	卓	-0.07531134
-3.1825206	见	-0.08561404
-3.3018415	创	-0.16114153
-4.0886145	稿	-0.07531134
-2.635673	因	-0.27452666
-3.0301063	表	-0.22783932
-3.1105738	现	-0.11000259
-2.978241	性	-0.099666566
-3.9806423	绘	-0.1697121
-3.238096	画	-0.07531134
-3.4669106	象	-0.123668015
-3.4669106	隐	-0.10455614
-4.1774764	喻	-0.07531134
-3.8416104	私	-0.07531134
-2.2945328	而	-0.14816943
-3.9806423	阻	-0.07531134
-3.3765802	塞	-0.07531134
-2.7350888	对	-0.10133983
-3.0890164	某	-0.10984952
-3.4669106	件	-0.092620924
-3.1825206	深	-0.08891901
-3.133257	度	-0.08604869
-3.1105738	认	-0.6125027
-3.5811	识	-0.12881353
-3.3765802	联	-0.1379156
-4.0886145	盟	-0.07531134
-3.0890164	或	-0.18082324
-3.4194012	许	-0.25507075
-2.754119	会	-0.12795903
-2.7258778	给	-0.11224564
-2.8281748	新	-0.11574675
-3.9806423	晋	-0.07531134
-3.4194012	恶	-0.09705826
-3.6518693	例	-0.11328673
-2.931914	只	-0.1984582
-3.2688003	热	-0.1701003
-3.6518693	闹	-0.07531134
-2.7258778	两	-0.17330769
-2.763956	天	-0.1365066
-3.5811	松	-0.07531134
-3.9806423	垮	-0.07531134
-2.890056	最	-0.23873624
-3.3765802	终	-0.2601252
-2.85188	本	-0.1131599
-3.3765802	论	-0.11064906
-2.4370966	文	-0.221755
-3.1825206	集	-0.16931905
-3.1825206	算	-0.103477046
-3.20942	圆	-0.14370283
-3.1825206	满	-0.0753113
-3.3376052	任	-0.092620924
-3.7364593	另	-0.16853401
-2.359991	外	-0.18755014
-3.5811	假	-0.07531134
-3.2688003	设	-0.1430824
-3.6518693	麻	-0.119951814
-4.1774764	烦	-0.07531134
-3.3376052	请	-0.11064906
-3.0301063	关	-0.17989406
-2.7258778	内	-0.122142
-3.2688003	及	-0.12235278
-3.8416104	星	-0.07531134
-3.0121207	空	-0.10816223
-2.9035654	花	-0.09534624
-3.238096	园	-0.07531134
-3.068479	别	-0.1022353
-3.0890164	让	-0.1067381
-3.3765802	屋	-0.15033539
-3.3376052	变	-0.095346175
-3.7364593	鬼	-0.07531134
-4.0886145	啦	-0.07531134
-2.7948794	云	-0.11574675
-3.20942	香	-0.20257752
-3.1571906	快	-0.08760452
-3.9806423	燃	-0.1697121
-3.3376052	唐	-0.09388409
-2.7948794	老	-0.10621943
-3.2688003	接	-0.13943054
-3.520263	班	-0.101541445
-3.8416104	骂	-0.07531134
-3.8416104	混	-0.07531134
-3.8416104	帐	-0.14411968
-3.2688003	卖	-0.09054828
-3.4194012	碗	-0.092620924
-3.4194012	茶	-0.119951814
-2.7843251	起	-0.19742155
-4.1774764	尹	-0.07531134
-2.525133	着	-0.09927845
-3.9806423	迷	-0.07531134
-2.6140082	于	-0.0999568
-3.3765802	洋	-0.09388409
-3.8416104	溢	-0.12945819
-3.3765802	馆	-0.11635025
-3.6518693	浓	-0.07531134
-3.7364593	郁	-0.07531134
-3.2688003	味	-0.12902832
-2.6584759	这	-0.32592437
-3.3018415	强	-0.07531134
-3.8416104	劲	-0.07531134
-3.133257	音	-0.14263175
-2.890056	意	-0.13110268
-3.5811	急	-0.1083542
-3.3018415	需	-0.32707193
-2.716858	业	-0.15661073
-3.4194012	料	-0.1249239
-3.3018415	冷	-0.1541883
-4.1774764	轧	-0.07531134
-3.7364593	薄	-0.07531134
-3.7364593	板	-0.07531134
-2.5736737	生	-0.20893013
-2.9468138	产	-0.13167636
-3.0890164	力	-0.11149333
-3.6518693	猛	-0.07531134
-3.238096	增	-0.12546913
-2.978241	分	-0.12805267
-2.650741	之	-0.14562711
-3.0301063	北	-0.19418567
-3.8416104	京	-0.07531134
-4.1774764	阜	-0.07531134
-2.9468138	医	-0.39578393
-3.0301063	院	-0.10089314
-3.133257	科	-0.17558736
-2.978241	专	-0.324428
-3.3765802	含	-0.0753113
-4.0886145	蓄	-0.07531134
-4.0886145	释	-0.07531134
-2.864236	明	-0.1282028
-3.3018415	患	-0.16114153
-3.2688003	母	-0.19716384
-3.1825206	亲	-0.11635025
-3.4669106	差	-0.119951814
-3.3765802	直	-0.1249239
-3.048869	影	-0.13715494
-3.6518693	响	-0.1083542
-3.133257	代	-0.1982742
-3.6518693	健	-0.119951814
-3.520263	康	-0.07531134
-3.520263	帮	-0.24019638
-3.3765802	穷	-0.11635025
-3.3376052	富	-0.11942616
-4.0886145	裕	-0.07531134
-3.238096	领	-0.21745281
-3.4194012	导	-0.09388409
-2.7258778	爱	-0.14865342
-3.2688003	信	-0.09388409
-3.133257	基	-0.24844207
-3.5811	诺	-0.07531134
-3.520263	族	-0.0753113
-3.3376052	男	-0.16060805
-3.3765802	穿	-0.1242471
-2.864236	白	-0.123740666
-3.0301063	色	-0.11064906
-2.864236	无	-0.11201357
-3.3018415	棉	-0.1083542
-3.4669106	衣	-0.26307204
-3.6518693	背	-0.119951814
-4.0886145	绣	-0.07531134
-3.4669106	彩	-0.10455614
-3.9806423	芒	-0.07531134
-3.20942	图	-0.12235278
-3.3018415	案	-0.09054828
-4.1774764	裤	-0.07531134
-2.716858	长	-0.13115379
-3.520263	航	-0.25784233
-3.1825206	管	-0.19775003
-3.1571906	局	-0.08760452
-3.4669106	轮	-0.101541445
-3.3018415	船	-0.0753113
-3.068479	总	-0.15640055
-2.7948794	公	-0.32301158
-3.4669106	司	-0.11120535
-3.1571906	近	-0.09388409
-2.763956	安	-0.17712891
-3.3018415	排	-0.15707594
-2.6743712	三	-0.21652015
-3.6518693	艘	-0.07531134
-3.3018415	客	-0.091518596
-3.4194012	迎	-0.09909031
-3.1571906	干	-0.10123907
-3.520263	线	-0.07531134
-3.1105738	春	-0.08652163
-2.5933728	运	-0.32134268
-3.3376052	节	-0.11635025
-3.0890164	目	-0.22663453
-3.048869	单	-0.25134853
-4.0886145	赫	-0.07531134
-2.876954	然	-0.117939204
-2.9468138	印	-0.2082994
-3.5811	邀	-0.18094392
-4.1774764	央	-0.07531134
-3.3765802	乐	-0.10633935
-3.1571906	团	-0.12945814
-3.3376052	余	-0.07531134
-2.978241	演	-0.33531126
-4.1774764	奏	-0.07531134
-3.9806423	唱	-0.14411968
-3.520263	微	-0.07531134
-3.6518693	妙	-0.07531134
-2.4661734	地	-0.17605874
-3.520263	避	-0.14411968
-3.9806423	矛	-0.28739598
-4.1774764	盾	-0.07531134
-3.8416104	吸	-0.14411968
-3.1105738	引	-0.2186756
-3.1571906	游	-0.2161334
-3.8416104	泳	-0.07531134
-3.133257	者	-0.11064906
-3.7364593	售	-0.07531134
-2.6825426	年	-0.14895318
-3.238096	卡	-0.07531134
-3.1105738	情	-0.16174603
-4.1774764	侣	-0.07531134
-3.5811	欢	-0.13518643
-3.0121207	金	-0.08264541
-3.520263	陈	-0.09705826
-3.9806423	独	-0.07531134
-3.520263	秀	-0.101541445
-3.6518693	敢	-0.11328673
-3.0301063	做	-0.09705826
-2.6743712	五	-0.2598339
-2.7350888	四	-0.18983716
-2.931914	动	-0.11655032
-3.1825206	群	-0.1619369
-3.520263	奋	-0.25784233
-3.3376052	勇	-0.13313192
-2.8281748	前	-0.14785646
-3.048869	建	-0.2132815
-3.9806423	筑	-0.07531134
-2.978241	东	-0.12586887
-3.048869	阳	-0.109840274
-3.520263	统	-0.16309513
-3.7364593	势	-0.07531134
-4.0886145	卢	-0.07531134
-3.9806423	宅	-0.07531134
-4.0886145	雍	-0.07531134
-3.4669106	堂	-0.07531134
-2.9175084	民	-0.10378532
-3.9806423	典	-0.07531134
-3.7364593	范	-0.11328673
-3.1105738	保	-0.1652727
-3.5811	护	-0.12881353
-3.20942	银	-0.30247068
-3.4669106	承	-0.13591339
-4.0886145	兑	-0.07531134
-3.7364593	汇	-0.07531134
-3.5811	票	-0.07531134
-3.6518693	申	-0.119951814
-3.238096	期	-0.10633935
-2.6743712	将	-0.13718788
-3.238096	交	-0.07531134
-3.520263	存	-0.13518643
-3.1825206	户	-0.11715416
-3.3765802	备	-0.09054828
-2.9035654	战	-0.20453262
-2.931914	亚	-0.15080504
-3.520263	兰	-0.07531134
-3.1571906	奥	-0.17065746
-3.6518693	训	-0.12881353
-2.9948506	共	-0.1982742
-2.9035654	名	-0.09434714
-2.890056	平	-0.15081188
-3.3765802	均	-0.15179808
-3.3376052	岁	-0.21745281
-3.0301063	身	-0.11635025
-3.238096	米	-0.09909031
-3.1105738	七	-0.18129829
-3.6518693	据	-0.11120535
-3.9806423	估	-0.28739598
-3.3765802	计	-0.12235278
-3.520263	驻	-0.15860301
-3.7364593	匈	-0.119951814
-3.3376052	苏	-0.11635025
-2.6908705	军	-0.13998841
-2.9948506	约	-0.101541415
-2.9622433	万	-0.20318666
-3.238096	九	-0.1581511
-3.7364593	签	-0.07531134
-3.8416104	订	-0.07531134
-3.5811	境	-0.13591339
-3.1571906	连	-0.08760452
-2.864236	广	-0.28384846
-3.0301063	西	-0.14866915
-2.9948506	边	-0.102474816
-2.9468138	远	-0.13167576
-3.1105738	省	-0.1269991
-2.6070204	区	-0.1601775
-2.978241	电	-0.16981447
-3.068479	修	-0.10984952
-3.3765802	培	-0.28099704
-3.0301063	结	-0.24442285
-2.716858	学	-0.20854427
-3.3765802	超	-0.123668015
-2.7080214	过	-0.14304122
-4.0886145	豆	-0.22592057
-4.0886145	腐	-0.07531134
-3.3376052	脑	-0.11635025
-4.1774764	尝	-0.07531134
-2.7843251	方	-0.14817394
-2.9948506	正	-0.091518596
-3.7364593	嫩	-0.07531134
-3.3765802	块	-0.12913574
-2.9468138	吃	-0.13469432
-2.7843251	口	-0.12068418
-3.1105738	此	-0.1001122
-3.8416104	僧	-0.07531134
-3.1825206	精	-0.20538062
-3.3018415	真	-0.12902832
-3.133257	研	-0.45891815
-3.7364593	习	-0.115868986
-3.0301063	教	-0.25097033
-3.4669106	义	-0.1242471
-3.238096	佛	-0.10633935
-2.85188	经	-0.23904563
-3.048869	实	-0.16101512
-3.7364593	验	-0.14328635
-3.7364593	证	-0.07531134
-3.238096	杀	-0.0753113
-3.5811	般	-0.09705826
-3.6518693	孕	-0.07531134
-3.6518693	且	-0.091518596
-2.9175084	使	-0.22199202
-2.8056967	全	-0.15433747
-3.238096	便	-0.07531134
-3.4194012	怕	-0.09705826
-3.2688003	愿	-0.12546913
-3.1571906	每	-0.11496342
-3.8416104	津	-0.07531134
-4.0886145	贴	-0.07531134
-3.238096	钱	-0.16419101
-3.7364593	餐	-0.07531134
-4.0886145	巾	-0.07531134
-3.4669106	擦	-0.07531134
-3.6518693	嘴	-0.07531134
-2.876954	手	-0.13007544
-3.3018415	指	-0.115868986
-3.5811	杯	-0.07531134
-3.4669106	纸	-0.07531134
-4.1774764	拭	-0.07531134
-3.520263	脸	-0.15860301
-4.0886145	汗	-0.07531134
-4.1774764	沾	-0.07531134
-2.8167903	水	-0.1075289
-3.9806423	汁	-0.07531134
-4.1774764	绢	-0.07531134
-3.520263	掉	-0.18218553
-3.068479	通	-0.14020857
-3.8416104	责	-0.07531134
-3.3376052	令	-0.11023742
-3.8416104	赔	-0.22391123
-4.1774764	偿	-0.07531134
-3.20942	杨	-0.12272627
-3.6518693	属	-0.07531134
-3.2688003	费	-0.14280619
-3.4194012	它	-0.091518596
-2.7080214	小	-0.109944865
-4.0886145	仲	-0.07531134
-3.520263	顾	-0.11942616
-4.0886145	闲	-0.07531134
-3.2688003	言	-0.13936742
-3.9806423	碎	-0.07531134
-3.068479	语	-0.13225938
-3.1105738	几	-0.14132762
-4.1774764	趟	-0.07531134
-3.520263	洗	-0.07531134
-3.3765802	饭	-0.07531137
-4.0886145	熬	-0.07531134
-4.1774764	煎	-0.07531134
-4.1774764	汤	-0.07531134
-2.978241	太	-0.24738167
-3.133257	间	-0.100475445
-3.520263	吴	-0.07531134
-3.238096	永	-0.11064906
-4.1774764	哮	-0.07531134
-4.1774764	喘	-0.07531134
-2.9468138	病	-0.12534364
-4.1774764	咳	-0.07531134
-4.1774764	嗽	-0.07531134
-3.6518693	挺	-0.119951814
-3.9806423	厉	-0.07531134
-3.4669106	害	-0.07531134
-3.3018415	非	-0.14866915
-3.8416104	咽	-0.07531134
-3.4194012	李	-0.11635025
-3.520263	润	-0.07531134
-3.5811	换	-0.13518643
-3.20942	随	-0.12235278
-3.4669106	滚	-0.07531134
-3.048869	车	-0.095346175
-3.20942	流	-0.1083542
-3.0301063	南	-0.10633935
-3.20942	晚	-0.09909031
-3.0301063	打	-0.10809824
-3.520263	铺	-0.07531134
-3.520263	仰	-0.1083542
-2.9035654	望	-0.12584335
-3.3765802	谈	-0.09909031
-3.068479	华	-0.07531137
-3.520263	社	-0.07531134
-3.6518693	纳	-0.14411968
-2.7080214	日	-0.18135063
-3.0890164	欧	-0.46655744
-3.7364593	洲	-0.08968764
-3.1571906	常	-0.14286035
-3.9806423	裁	-0.1697121
-3.133257	今	-0.33385643
-3.8416104	束	-0.07531134
-3.9806423	舱	-0.07531134
-3.4669106	岸	-0.15033539
-4.0886145	幢	-0.07531134
-3.1571906	古	-0.08822839
-4.0886145	绵	-0.07531134
-3.6518693	断	-0.10455614
-2.864236	面	-0.14475174
-3.8416104	扑	-0.07531134
-2.536769	又	-0.11315302
-3.9806423	迅	-0.14411968
-3.7364593	速	-0.07531134
-2.876954	当	-0.14155926
-4.0886145	唇	-0.07531134
-4.0886145	鹿	-0.07531134
-3.2688003	扬	-0.12586887
-4.0886145	蹄	-0.07531134
-3.1825206	追	-0.13554971
-3.4194012	切	-0.09054828
-3.3765802	告	-0.0870381
-4.0886145	诉	-0.07531134
-4.1774764	姚	-0.07531134
-2.763956	看	-0.20180896
-3.520263	姐	-0.19443887
-4.1774764	咖	-0.07531134
-4.0886145	啡	-0.07531134
-3.8416104	俊	-0.07531134
-3.7364593	握	-0.119951814
-3.520263	坐	-0.13591339
-3.7364593	钟	-0.07531134
-4.0886145	索	-0.07531134
-3.9806423	词	-0.07531134
-3.20942	汉	-0.07531134
-3.7364593	拼	-0.12945819
-3.4669106	列	-0.101541445
-3.8416104	序	-0.07531134
-3.4194012	查	-0.09705826
-3.520263	找	-0.07531134
-3.4669106	库	-0.07531134
-4.0886145	欠	-0.07531134
-3.2688003	货	-0.12902832
-3.133257	资	-0.19518435
-3.1571906	选	-0.101541445
-3.1825206	你	-0.11496342
-4.1774764	罹	-0.07531134
-4.1774764	恙	-0.07531134
-3.6518693	顿	-0.07531134
-3.4669106	愈	-0.1242471
-3.9806423	逆	-0.1697121
-4.1774764	馁	-0.07531134
-3.8416104	昌	-0.07531134
-3.4669106	夏	-0.07531134
-3.8416104	盛	-0.07531134
-3.4669106	若	-0.07531134
-4.0886145	锦	-0.07531134
-4.1774764	缎	-0.07531134
-3.4669106	烈	-0.09909031
-3.1571906	火	-0.08968764
-3.9806423	幕	-0.07531134
-3.133257	委	-0.24105775
-4.1774764	执	-0.07531134
-2.9622433	主	-0.24245101
-3.8416104	席	-0.07531134
-3.6518693	伍	-0.07531134
-3.7364593	绍	-0.07531134
-3.5811	祖	-0.11328673
-3.6518693	厅	-0.07531134
-3.7364593	露	-0.07531134
-2.476315	与	-0.1075238
-3.7364593	伟	-0.07531134
-2.7948794	市	-0.21073651
-2.9468138	机	-0.17864671
-3.9806423	杜	-0.07531134
-3.4669106	岳	-0.07531134
-3.1825206	玉	-0.12769893
-3.7364593	杰	-0.07531134
-3.0301063	装	-0.116827406
-4.0886145	卸	-0.07531134
-3.20942	刘	-0.12200077
-2.6140082	山	-0.13706538
-3.3765802	逃	-0.0753113
-3.5811	缘	-0.11328673
-3.1825206	突	-0.27143177
-4.1774764	湘	-0.07531134
-4.1774764	危	-0.07531134
-4.1774764	矣	-0.07531134
-3.9806423	遵	-0.07531134
-3.3765802	确	-0.09705826
-4.0886145	策	-0.07531134
-3.0890164	飞	-0.25818413
-3.1571906	千	-0.19257085
-4.1774764	颂	-0.07531134
-3.9806423	聘	-0.07531134
-2.6908705	从	-0.09899924
-3.1105738	事	-0.104330614
-3.7364593	岗	-0.07531134
-4.1774764	殊	-0.07531134
-3.8416104	暂	-0.07531134
-3.5811	缺	-0.07531134
-3.4669106	适	-0.23333804
-3.7364593	违	-0.50924474
-4.1774764	冉	-0.07531134
-3.9806423	固	-0.07531134
-3.3765802	镇	-0.09705826
-4.0886145	毯	-0.07531134
-2.7350888	厂	-0.14536117
-3.3018415	苗	-0.07531134
-3.238096	听	-0.15172885
-4.0886145	喊	-0.07531134
-3.0890164	声	-0.114528134
-3.4669106	协	-0.13518643
-3.5811	罪	-0.07531134
-3.5811	押	-0.07531134
-3.238096	派	-0.09054828
-4.0886145	介	-0.22592057
-3.3018415	托	-0.092620924
-3.3376052	议	-0.13554971
-3.20942	活	-0.18440755
-4.1774764	涤	-0.07531134
-4.0886145	剂	-0.07531134
-3.9806423	熊	-0.14411968
-3.9806423	猫	-0.07531134
-3.238096	奶	-0.12235278
-3.5811	粉	-0.07531134
-4.1774764	讼	-0.07531134
-3.7364593	炸	-0.07531134
-3.7364593	弹	-0.07531134
-3.3376052	求	-0.07531134
-3.7364593	箱	-0.07531134
-3.3376052	钻	-0.07531137
-3.8416104	孔	-0.07531134
-4.1774764	铣	-0.07531134
-3.3018415	环	-0.10633935
-3.9806423	槽	-0.07531134
-3.0890164	周	-0.18562175
-4.0886145	匀	-0.07531134
-3.8416104	螺	-0.07531134
-3.7364593	纹	-0.07531134
-3.9806423	厄	-0.1697121
-3.6518693	瓜	-0.07531134
-2.978241	尔	-0.09054828
-4.1774764	疟	-0.07531134
-4.0886145	疾	-0.07531134
-4.1774764	蔓	-0.07531134
-3.3376052	延	-0.14411968
-2.864236	已	-0.12643787
-3.9806423	亡	-0.07531134
-4.0886145	旱	-0.07531134
-3.1571906	仍	-0.10421783
-3.3018415	除	-0.1711646
-3.1825206	宁	-0.11715416
-3.7364593	肯	-0.16853401
-2.567301	等	-0.17249285
-3.1825206	雨	-0.10123907
-3.8416104	迟	-0.07531134
-3.5811	播	-0.11328673
-3.7364593	沃	-0.18984525
-3.6518693	叶	-0.11328673
-2.978241	利	-0.17644607
-3.7364593	钦	-0.16853401
-3.3018415	命	-0.14735341
-3.3765802	既	-0.119951814
-3.20942	俄	-0.22935377
-3.7364593	邦	-0.07531134
-3.7364593	宪	-0.26902655
-3.0890164	各	-0.19408663
-3.520263	柳	-0.07531134
-4.1774764	倩	-0.07531134
-3.1571906	阿	-0.11120535
-3.5811	著	-0.15392758
-3.7364593	幼	-0.18984525
-3.3376052	艺	-0.27254638
-3.7364593	术	-0.0753113
-4.0886145	童	-0.07531134
-3.9806423	桌	-0.07531134
-3.9806423	挥	-0.07531134
-3.8416104	毫	-0.14411968
-4.1774764	泼	-0.07531134
-3.6518693	墨	-0.119951814
-3.6518693	授	-0.14411968
-3.238096	技	-0.5129495
-3.520263	妹	-0.115868986
-3.5811	浴	-0.1083542
-3.1825206	血	-0.11715416
-3.6518693	斗	-0.101541445
-3.7364593	歹	-0.32082123
-3.7364593	徒	-0.10455614
-3.9806423	迹	-0.07531134
-3.1825206	州	-0.095116906
-3.5811	界	-0.07531137
-3.520263	士	-0.0753113
-3.7364593	纷	-0.21191952
-3.7364593	慰	-0.32082123
-2.9468138	英	-0.22017899
-3.520263	雄	-0.095346175
-3.6518693	卧	-0.07531134
-4.1774764	俯	-0.07531134
-3.520263	横	-0.07531134
-3.9806423	叉	-0.07531134
-3.8416104	纵	-0.07531134
-3.4194012	腰	-0.09705826
-3.5811	桥	-0.11328673
-3.2688003	世	-0.25507075
-3.9806423	纪	-0.07531134
-4.1774764	壕	-0.07531134
-4.1774764	堑	-0.07531134
-3.4669106	依	-0.13591339
-4.1774764	僵	-0.07531134
-3.9806423	蛇	-0.07531134
-3.1571906	黑	-0.07531134
-2.9622433	风	-0.12009433
-3.6518693	侧	-0.07531134
-3.520263	荒	-0.07531134
-3.1571906	野	-0.0870381
-4.0886145	岭	-0.07531134
-4.1774764	灼	-0.07531134
-3.520263	痛	-0.10455614
-3.4669106	细	-0.07531134
-3.9806423	简	-0.07531134
-3.068479	称	-0.1785194
-3.4194012	临	-0.09705826
-4.1774764	濒	-0.07531134
-3.6518693	冰	-0.07531134
-3.3018415	整	-0.11328673
-4.1774764	札	-0.07531134
-4.1774764	幌	-0.07531134
-2.9035654	育	-0.11715416
-3.3765802	卫	-0.25607654
-4.1774764	冕	-0.07531134
-3.520263	争	-0.11023742
-3.7364593	夺	-0.07531134
-3.8416104	始	-0.07531134
-3.048869	企	-0.8526031
-3.3376052	挖	-0.07531134
-4.0886145	潜	-0.07531134
-3.3018415	负	-0.20388481
-3.4194012	忙	-0.101541445
-3.6518693	号	-0.1083542
-3.5811	居	-0.11328673
-4.1774764	邵	-0.07531134
-3.520263	桃	-0.07531134
-3.5811	婆	-0.07531134
-3.1825206	压	-0.12272627
-3.6518693	凶	-0.15392758
-4.1774764	狠	-0.07531134
-3.3376052	酒	-0.07531134
-3.1571906	立	-0.15912282
-3.8416104	拧	-0.14411968
-3.1571906	黄	-0.12881353
-4.1774764	咔	-0.07531134
-4.1774764	嚓	-0.07531134
-4.1774764	脖	-0.07531134
-3.8416104	枝	-0.07531134
-3.4669106	爷	-0.123668015
-3.2688003	朝	-0.07531134
-3.4669106	鲜	-0.10455614
-3.0890164	带	-0.15033539
-3.3018415	毛	-0.07531134
-3.7364593	笔	-0.07531134
-3.7364593	扔	-0.07531134
-3.5811	字	-0.13591339
-4.1774764	篓	-0.07531134
-3.3376052	娘	-0.12945814
-3.6518693	察	-0.101541445
-3.4669106	觉	-0.21468386
-3.7364593	丢	-0.07531134
-3.2688003	神	-0.08968764
-3.7364593	乔	-0.07531134
-4.1774764	膝	-0.07531134
-3.4194012	伤	-0.07531134
-2.890056	她	-0.12398942
-3.7364593	梦	-0.11328673
-3.9806423	阶	-0.1697121
-3.4669106	段	-0.11328673
-2.931914	转	-0.109264426
-4.1774764	涵	-0.07531134
-3.3765802	率	-0.11942616
-3.7364593	俩	-0.07531134
-3.2688003	格	-0.13080326
-4.0886145	恬	-0.22592057
-3.4194012	静	-0.15033539
-2.876954	比	-0.1449179
-2.9622433	但	-0.119951814
-2.7740211	都	-0.12267391
-3.2688003	税	-0.12272627
-3.0890164	收	-0.16964056
-3.520263	窑	-0.1083542
-3.9806423	偷	-0.07531134
-3.133257	元	-0.13970993
-3.7364593	兄	-0.18984525
-3.6518693	弟	-0.07531134
-4.0886145	姊	-0.22592057
-3.9806423	舅	-0.07531134
-2.7740211	养	-0.19289726
-2.9035654	女	-0.16153356
-3.1105738	改	-0.20692812
-3.5811	吕	-0.07531134
-3.3765802	治	-0.09705826
-4.0886145	闽	-0.07531134
-3.2688003	话	-0.119951814
-4.1774764	缸	-0.07531134
-4.1774764	舀	-0.07531134
-4.0886145	掏	-0.07531134
-3.3376052	牛	-0.07531134
-3.238096	肉	-0.0753113
-3.4194012	午	-0.10633935
-4.1774764	罐	-0.07531134
-4.1774764	馍	-0.07531134
-3.6518693	夹	-0.1697121
-4.0886145	烤	-0.07531134
-3.5811	乌	-0.11328673
-3.9806423	兹	-0.07531134
-3.20942	克	-0.1083542
-3.133257	斯	-0.08484245
-4.0886145	坦	-0.07531134
-3.7364593	洛	-0.07531134
-3.2688003	夫	-0.13313192
-3.9806423	示	-0.07531134
-3.4669106	系	-0.14280619
-3.3376052	顺	-0.11328673
-3.6518693	谷	-0.07531134
-2.9948506	红	-0.1211394
-4.0886145	粱	-0.07531134
-3.1825206	青	-0.14717634
-3.1825206	菜	-0.10421783
-4.0886145	濡	-0.07531134
-3.9806423	染	-0.07531134
-3.4194012	盘	-0.07531134
-3.520263	鸡	-0.07531134
-3.8416104	鸣	-0.07531134
-3.9806423	鸭	-0.07531134
-3.7364593	戏	-0.07531134
-2.9948506	马	-0.103477046
-3.9806423	驰	-0.14411968
-3.7364593	耕	-0.07531134
-3.8416104	揉	-0.07531134
-4.1774764	儒	-0.07531134
-4.0886145	楷	-0.07531134
-3.520263	模	-0.123668015
-4.0886145	跻	-0.22592057
-3.4669106	湖	-0.07531134
-3.9806423	滨	-0.07531134
-3.5811	息	-0.1702062
-3.048869	张	-0.08561404
-4.1774764	蔬	-0.07531134
-2.9468138	烟	-0.11698908
-3.9806423	稻	-0.07531134
-2.8398657	农	-0.29426563
-3.520263	秧	-0.11942616
-3.2688003	左	-0.27494156
-3.4194012	右	-0.092620924
-4.1774764	陕	-0.07531134
-3.9806423	甘	-0.07531134
-3.0301063	制	-0.11850006
-3.3376052	举	-0.16145656
-3.20942	参	-0.39470726
-3.5811	竞	-0.25120962
-3.3765802	森	-0.07531134
-3.9806423	候	-0.07531134
-3.9806423	株	-0.07531134
-2.9035654	美	-0.19424126
-3.9806423	拔	-0.07531134
-3.7364593	昂	-0.12945819
-3.20942	木	-0.08968764
-3.3765802	树	-0.0753113
-3.1825206	拥	-0.35926244
-4.1774764	橡	-0.07531134
-3.520263	显	-0.16892636
-4.0886145	胶	-0.07531134
-3.5811	卷	-0.11328673
-3.4194012	冲	-0.1702062
-3.4669106	留	-0.12945819
-3.8416104	盒	-0.07531134
-4.0886145	份	-0.07531134
-3.0890164	片	-0.09458746
-3.5811	供	-0.1083542
-3.6518693	扩	-0.16853401
-4.1774764	择	-0.07531134
-3.6518693	瑞	-0.07531134
-3.7364593	讯	-0.07531134
-3.3018415	报	-0.1379156
-3.20942	道	-0.08484245
-3.520263	渔	-0.18218553
-3.9806423	晨	-0.07531134
-3.6518693	威	-0.119951814
-3.9806423	沿	-0.07531134
-2.864236	海	-0.11980161
-3.520263	沉	-0.07531134
-3.4194012	丧	-0.07531134
-3.5811	访	-0.1083542
-3.9806423	祥	-0.07531134
-3.7364593	冒	-0.12945819
-4.0886145	厕	-0.22592057
-4.1774764	睹	-0.07531134
-3.4194012	坡	-0.101541445
-3.8416104	脏	-0.07531134
-4.0886145	兮	-0.07531134
-3.3765802	景	-0.119951814
-3.9806423	况	-0.1083542
-3.3376052	温	-0.095346175
-3.520263	副	-0.13518643
-3.6518693	秘	-0.16853401
-3.8416104	翁	-0.07531134
-3.20942	武	-0.21240732
-4.1774764	瓯	-0.07531134
-3.4669106	些	-0.08891901
-3.5811	占	-0.07531134
-3.9806423	聚	-0.07531134
-4.0886145	炳	-0.07531134
-3.4669106	艾	-0.1697121
-4.0886145	邓	-0.07531134
-3.2688003	铁	-0.17801689
-3.6518693	梅	-0.07531134
-3.4194012	抗	-0.09909031
-2.9622433	八	-0.16766512
-3.1825206	路	-0.09705826
-3.9806423	刀	-0.07531134
-3.6518693	枪	-0.07531134
-4.0886145	仿	-0.07531134
-4.0886145	冤	-0.07531134
-3.9806423	魂	-0.07531134
-4.0886145	呐	-0.07531134
-4.1774764	贯	-0.07531134
-3.8416104	肝	-0.07531134
-3.3018415	官	-0.11023742
-3.3376052	扎	-0.09705826
-3.520263	伊	-0.1083542
-3.520263	莫	-0.07531134
-3.068479	达	-0.15099654
-3.7364593	校	-0.07531134
-3.5811	致	-0.07531134
-3.4669106	党	-0.07531134
-3.9806423	泽	-0.07531134
-3.7364593	志	-0.0753113
-3.5811	核	-0.15490375
-4.0886145	凌	-0.22592057
-4.1774764	坯	-0.07531134
-3.6518693	笑	-0.119951814
-3.3765802	类	-0.10633935
-3.3376052	考	-0.119951814
-3.8416104	究	-0.07531134
-3.3765802	喜	-0.123668015
-3.8416104	潮	-0.07531134
-3.9806423	饰	-0.07531134
-3.5811	止	-0.0753113
-3.8416104	彬	-0.07531134
-3.6518693	警	-0.119951814
-4.1774764	惕	-0.07531134
-3.4194012	床	-0.07531134
-3.3018415	孙	-0.09388409
-4.0886145	腋	-0.07531134
-3.5811	拿	-0.07531134
-4.0886145	椅	-0.07531134
-4.1774764	挡	-0.07531134
-3.520263	刚	-0.07531134
-4.1774764	拦	-0.07531134
-3.520263	抱	-0.18218553
-3.2688003	德	-0.09388409
-4.0886145	渗	-0.22592057
-3.520263	透	-0.23333804
-3.6518693	智	-0.1697121
-3.7364593	努	-0.18984525
-3.9806423	禽	-0.07531134
-3.9806423	鹰	-0.07531134
-4.1774764	秃	-0.07531134
-4.1774764	鹫	-0.07531134
-3.520263	壮	-0.1083542
-4.1774764	趾	-0.07531134
-3.7364593	端	-0.07531134
-3.9806423	锐	-0.07531134
-3.8416104	钩	-0.07531134
-3.2688003	曲	-0.092620924
-4.0886145	爪	-0.07531134
-3.520263	捕	-0.14411968
-3.3018415	数	-0.11328673
-3.520263	激	-0.14411968
-3.8416104	浑	-0.07531134
-3.5811	历	-0.07531134
-3.6518693	史	-0.07531134
-3.520263	丽	-0.07531134
-3.3376052	吹	-0.092620924
-4.1774764	梢	-0.07531134
-3.9806423	芽	-0.07531134
-3.6518693	槐	-0.07531134
-3.8416104	晓	-0.07531134
-3.6518693	庄	-0.11328673
-3.520263	竟	-0.22491471
-4.0886145	晦	-0.07531134
-3.4669106	久	-0.07531134
-3.7364593	废	-0.07531134
-4.0886145	陡	-0.07531134
-3.3376052	桑	-0.09705826
-3.8416104	蚕	-0.07531134
-3.4194012	福	-0.09909031
-3.0121207	县	-0.07531137
-3.7364593	皇	-0.07531134
-3.238096	乡	-0.12546913
-3.133257	清	-0.099968664
-4.1774764	惟	-0.07531134
-3.3376052	尼	-0.07531134
-3.20942	闻	-0.1083542
-3.5811	隆	-0.07531134
-3.8416104	籍	-0.07531134
-3.6518693	讲	-0.07531134
-3.4669106	师	-0.09705826
-3.520263	谢	-0.101541445
-4.0886145	酬	-0.07531134
-3.0121207	营	-0.25113532
-4.0886145	婉	-0.07531134
-3.6518693	陪	-0.07531134
-3.7364593	池	-0.07531134
-4.0886145	畔	-0.07531134
-3.7364593	伞	-0.07531134
-4.0886145	欣	-0.07531134
-3.6518693	赏	-0.1697121
-4.1774764	姿	-0.07531134
-3.048869	由	-0.16574517
-3.048869	林	-0.10809824
-3.7364593	乘	-0.07531134
-3.4669106	旅	-0.21468386
-4.1774764	榻	-0.07531134
-3.4194012	皮	-0.07531134
-3.068479	双	-0.18410257
-4.0886145	屏	-0.07531134
-3.4194012	抢	-0.101541445
-4.1774764	斜	-0.07531134
-3.7364593	视	-0.11328673
-3.8416104	肩	-0.07531134
-4.0886145	膀	-0.07531134
-3.9806423	胸	-0.07531134
-3.520263	肥	-0.07531137
-3.9806423	嘟	-0.07531134
-3.4669106	材	-0.18094392
-3.8416104	么	-0.07531134
-3.9806423	矮	-0.1697121
-3.8416104	尤	-0.14411968
-4.1774764	踩	-0.07531134
-4.1774764	跷	-0.07531134
-4.0886145	筋	-0.07531134
-4.1774764	绷	-0.07531134
-4.0886145	蓝	-0.07531134
-4.0886145	胳	-0.22592057
-4.1774764	膊	-0.07531134
-3.8416104	腿	-0.07531134
-3.7364593	腕	-0.07531134
-3.520263	粗	-0.1083542
-3.6518693	沈	-0.16853401
-3.6518693	诗	-0.07531134
-4.1774764	寅	-0.07531134
-3.520263	征	-0.07531134
-4.1774764	仇	-0.07531134
-2.9035654	并	-0.14518444
-3.2688003	网	-0.119951814
-3.9806423	殖	-0.11328673
-3.7364593	桂	-0.07531134
-2.9175084	鱼	-0.12516618
-3.8416104	繁	-0.07531134
-4.1774764	甲	-0.07531134
-4.1774764	蚌	-0.07531134
-3.8416104	珠	-0.07531134
-3.8416104	招	-0.07531134
-3.3765802	标	-0.11328673
-3.5811	程	-0.07531134
-3.7364593	误	-0.12945819
-3.8416104	允	-0.22391123
-3.3376052	价	-0.16912268
-3.0121207	相	-0.17351206
-3.3018415	调	-0.095346175
-3.5811	冬	-0.1083542
-3.1825206	城	-0.10597966
-4.0886145	尊	-0.07531134
-4.1774764	灌	-0.07531134
-3.4194012	田	-0.0753113
-3.5811	腾	-0.07531134
-3.9806423	傍	-0.1697121
-3.9806423	邻	-0.14411968
-4.1774764	扒	-0.07531134
-4.0886145	锣	-0.22592057
-4.0886145	鼓	-0.07531134
-3.3376052	阴	-0.1856801
-3.8416104	沟	-0.07531134
-3.4669106	旁	-0.101541445
-3.3376052	盆	-0.07531134
-3.5811	竹	-0.07531134
-3.8416104	栽	-0.07531134
-3.238096	该	-0.097768135
-4.1774764	聂	-0.07531134
-3.520263	誉	-0.12881353
-3.7364593	闭	-0.07531134
-3.6518693	煤	-0.119951814
-3.7364593	炼	-0.07531134
-4.0886145	焦	-0.07531134
-3.6518693	革	-0.21191952
-3.9806423	尖	-0.07531134
-3.0890164	政	-0.21598934
-3.6518693	贫	-0.07531134
-3.2688003	防	-0.12913574
-3.9806423	茂	-0.07531134
-3.8416104	敬	-0.07531134
-4.0886145	柴	-0.07531134
-3.8416104	耀	-0.14411968
-3.238096	准	-0.17083491
-4.0886145	滤	-0.07531134
-3.3376052	权	-0.092620924
-3.0301063	组	-0.28357315
-3.0301063	加	-0.114263736
-3.3018415	预	-0.23041564
-3.238096	赛	-0.15249938
-3.0121207	入	-0.10067013
-3.9806423	鉴	-0.07531134
-4.0886145	峡	-0.07531134
-3.8416104	栏	-0.07531134
-3.20942	至	-0.11748435
-3.2688003	知	-0.20208701
-3.4194012	探	-0.15860301
-3.8416104	雾	-0.07531134
-4.1774764	焰	-0.07531134
-3.6518693	障	-0.40000248
-4.0886145	碍	-0.07531134
-3.1825206	观	-0.1798106
-3.1825206	办	-0.15912282
-3.9806423	填	-0.07531134
-3.4194012	写	-0.101541445
-3.068479	受	-0.14035296
-4.1774764	纲	-0.07531134
-3.7364593	呼	-0.07531134
-4.1774764	吁	-0.07531134
-3.4669106	澳	-0.07531134
-3.5811	贸	-0.12945819
-3.1571906	感	-0.13943054
-3.9806423	府	-0.07531134
-3.7364593	融	-0.12945819
-3.9806423	熟	-0.07531134
-3.3018415	容	-0.17624858
-4.0886145	鼻	-0.07531134
-3.9806423	丑	-0.07531134
-4.1774764	懊	-0.07531134
-3.8416104	辽	-0.14411968
-3.6518693	练	-0.1083542
-3.9806423	郭	-0.07531134
-3.9806423	凤	-0.07531134
-4.1774764	瑗	-0.07531134
-3.8416104	霞	-0.07531134
-3.1825206	石	-0.08891901
-3.8416104	济	-0.1083542
-3.8416104	恰	-0.07531134
-3.520263	注	-0.30798343
-3.520263	登	-0.07531134
-3.7364593	弯	-0.12945819
-4.0886145	弓	-0.07531134
-4.1774764	弩	-0.07531134
-3.9806423	箭	-0.07531134
-3.238096	乱	-0.07531134
-4.0886145	吵	-0.07531134
-3.238096	哈	-0.0753113
-3.068479	拉	-0.085213274
-4.0886145	距	-0.07531134
-3.4669106	盐	-0.09909031
-3.7364593	酸	-0.07531134
-4.0886145	氢	-0.07531134
-3.4669106	埃	-0.13591339
-3.4669106	功	-0.092620924
-3.6518693	寻	-0.22457993
-4.1774764	辟	-0.07531134
-3.5811	液	-0.07531134
-3.7364593	乳	-0.07531134
-3.5811	灭	-0.07531134
-3.9806423	菌	-0.07531134
-3.6518693	婴	-0.22457993
-3.520263	配	-0.1083542
-3.7364593	素	-0.14328635
-3.6518693	幽	-0.119951814
-3.8416104	宠	-0.07531134
-4.0886145	妃	-0.07531134
-4.1774764	褒	-0.07531134
-4.1774764	姒	-0.07531134
-3.6518693	父	-0.26902655
-3.8416104	侯	-0.07531134
-3.7364593	偏	-0.119951814
-3.4669106	忘	-0.09909031
-3.4194012	饮	-0.12945819
-3.520263	耳	-0.07531134
-3.4194012	即	-0.07531134
-3.4669106	什	-0.57609373
-3.520263	弄	-0.1083542
-4.1774764	扛	-0.07531134
-3.1571906	食	-0.10123907
-3.9806423	牵	-0.07531134
-3.238096	羊	-0.11023742
-3.4669106	低	-0.09909031
-4.1774764	袋	-0.07531134
-3.6518693	晒	-0.119951814
-3.7364593	毒	-0.07531134
-4.0886145	麦	-0.07531134
-4.1774764	奠	-0.07531134
-3.5811	坚	-0.14328635
-4.1774764	础	-0.07531134
-4.1774764	郢	-0.07531134
-4.1774764	圩	-0.07531134
-3.4669106	淮	-0.13591339
-3.3018415	河	-0.18637295
-3.3018415	洪	-0.17832609
-3.7364593	泉	-0.07531134
-4.1774764	豫	-0.07531134
-4.1774764	皖	-0.07531134
-3.9806423	鄂	-0.07531134
-3.8416104	撤	-0.07531134
-3.8416104	句	-0.07531134
-3.3765802	韵	-0.0753113
-3.238096	散	-0.17801689
-3.7364593	概	-0.07531134
-3.8416104	奖	-0.07531134
-3.9806423	挨	-0.07531134
-4.0886145	罚	-0.07531134
-4.0886145	截	-0.07531134
-3.8416104	旬	-0.07531134
-3.9806423	拖	-0.07531134
-3.520263	升	-0.07531134
-3.4194012	降	-0.101541445
-3.8416104	蜿	-0.41233474
-4.1774764	蜒	-0.07531134
-3.9806423	叠	-0.07531134
-3.7364593	浪	-0.07531134
-4.0886145	瀑	-0.07531134
-3.2688003	似	-0.18389082
-3.9806423	穴	-0.07531134
-4.0886145	翠	-0.07531134
-4.1774764	丛	-0.07531134
-3.3018415	杂	-0.112842984
-3.520263	短	-0.07531134
-3.20942	雅	-0.12272627
-3.3376052	俗	-0.119951814
-3.9806423	哲	-0.07531134
-4.1774764	荤	-0.07531134
-3.8416104	杆	-0.07531134
-3.4194012	跳	-0.07531134
-3.4669106	巴	-0.07531134
-3.3018415	娃	-0.12902832
-3.0890164	牙	-0.10698303
-3.3018415	造	-0.12586887
-3.7364593	幅	-0.07531134
-3.6518693	阔	-0.119951814
-3.9806423	饱	-0.07531134
-3.2688003	包	-0.19112387
-4.0886145	括	-0.07531134
-3.5811	玄	-0.11328673
-3.9806423	熏	-0.1697121
-4.0886145	陶	-0.07531134
-4.0886145	琴	-0.07531134
-4.0886145	膜	-0.07531134
-3.4669106	亩	-0.123668015
-3.5811	粮	-0.11328673
-4.1774764	斤	-0.07531134
-3.520263	脱	-0.07531134
-3.9806423	笼	-0.07531134
-3.3765802	怎	-0.44628614
-3.4669106	雷	-0.07531134
-3.7364593	疫	-0.18984525
-4.1774764	鳟	-0.07531134
-4.1774764	疖	-0.07531134
-3.20942	减	-0.3198017
-4.0886145	泛	-0.07531134
-3.9806423	兽	-0.07531134
-3.7364593	舍	-0.07531134
-3.6518693	站	-0.1083542
-3.7364593	牌	-0.101541445
-3.5811	套	-0.07531134
-4.1774764	腥	-0.07531134
-3.9806423	甚	-0.1697121
-4.0886145	暴	-0.07531134
-4.0886145	躁	-0.07531134
-3.8416104	偶	-0.14411968
-3.4194012	秋	-0.101541445
-4.1774764	旦	-0.07531134
-3.5811	遇	-0.1998504
-4.0886145	猎	-0.22592057
-4.1774764	钳	-0.07531134
-3.9806423	尾	-0.07531134
-4.0886145	刺	-0.07531134
-3.7364593	射	-0.07531134
-4.0886145	针	-0.07531134
-4.1774764	撰	-0.07531134
-4.0886145	艰	-0.07531134
-4.1774764	涩	-0.07531134
-4.1774764	帙	-0.07531134
-3.9806423	庞	-0.07531134
-3.1571906	难	-0.12395746
-3.8416104	阅	-0.07531134
-3.7364593	豪	-0.07531134
-4.0886145	堪	-0.07531134
-3.7364593	萨	-0.07531134
-3.6518693	遭	-0.119951814
-4.1774764	抑	-0.07531134
-3.7364593	胜	-0.07531134
-4.0886145	枚	-0.07531134
-3.8416104	彭	-0.07531134
-3.8416104	媛	-0.07531134
-3.9806423	董	-0.07531134
-4.1774764	钰	-0.07531134
-4.0886145	莹	-0.07531134
-3.1105738	台	-0.15860301
-3.8416104	献	-0.14411968
-3.9806423	窦	-0.1697121
-3.6518693	灯	-0.07531134
-4.0886145	赐	-0.07531134
-3.7364593	妻	-0.18984525
-4.1774764	绾	-0.07531134
-3.5811	墓	-0.11328673
-3.9806423	雌	-0.1697121
-3.9806423	鸟	-0.07531134
-4.1774764	孵	-0.07531134
-4.0886145	卵	-0.07531134
-3.520263	继	-0.21191952
-4.0886145	续	-0.07531134
-4.0886145	亭	-0.07531134
-3.9806423	诱	-0.07531134
-3.8416104	异	-0.07531134
-3.9806423	纺	-0.07531134
-3.8416104	扭	-0.14411968
-3.7364593	亏	-0.119951814
-3.7364593	盈	-0.07531134
-3.6518693	织	-0.11328673
-3.20942	落	-0.091518596
-3.8416104	良	-0.14411968
-3.8416104	植	-0.119951814
-3.8416104	季	-0.07531134
-3.4669106	旋	-0.10455614
-3.3376052	丝	-0.07531137
-3.8416104	凡	-0.07531134
-3.3376052	您	-0.09705826
-4.0886145	辈	-0.07531134
-4.0886145	豚	-0.07531134
-4.1774764	惜	-0.07531134
-3.4194012	买	-0.14356396
-3.8416104	耐	-0.07531134
-3.5811	救	-0.14411968
-3.7364593	援	-0.07531134
-4.0886145	疗	-0.07531134
-3.4669106	器	-0.11328673
-4.0886145	械	-0.07531134
-3.9806423	洁	-0.07531134
-4.0886145	忽	-0.07531134
-3.3765802	剧	-0.1242471
-3.0890164	矿	-0.11299087
-3.7364593	渴	-0.32082123
-3.9806423	输	-0.07531134
-3.7364593	邮	-0.19133057
-3.7364593	投	-0.32082123
-3.8416104	慢	-0.07531134
-4.0886145	侦	-0.07531134
-3.520263	顶	-0.07531134
-4.1774764	劫	-0.07531134
-3.3018415	尽	-0.095346175
-4.0886145	缴	-0.07531134
-3.3018415	获	-0.095346175
-3.8416104	批	-0.07531134
-3.5811	赃	-0.24999149
-3.3376052	恩	-0.07531134
-3.4194012	消	-0.12945819
-3.6518693	癌	-0.07531134
-4.1774764	症	-0.07531134
-3.5811	韩	-0.07531134
-4.0886145	章	-0.07531134
-4.1774764	虑	-0.07531134
-4.1774764	喀	-0.07531134
-3.9806423	兔	-0.1697121
-3.6518693	饲	-0.34093374
-3.6518693	喂	-0.119951814
-3.7364593	呀	-0.07531134
-3.4669106	普	-0.19443887
-3.8416104	遍	-0.07531134
-4.0886145	限	-0.07531134
-3.520263	轻	-0.07531134
-4.1774764	裘	-0.07531134
-3.3765802	友	-0.115868986
-3.6518693	跨	-0.07531134
-3.520263	划	-0.101541445
-3.6518693	仅	-0.07531134
-3.5811	沙	-0.07531134
-3.0301063	夜	-0.15008812
-4.1774764	涛	-0.07531134
-4.1774764	惦	-0.07531134
-3.5811	遥	-0.15392758
-4.0886145	彻	-0.07531134
-4.1774764	眠	-0.07531134
-4.0886145	钉	-0.07531134
-4.0886145	搬	-0.07531134
-4.0886145	迁	-0.07531134
-4.0886145	濮	-0.07531134
-4.1774764	炮	-0.07531134
-3.8416104	咬	-0.14411968
-4.1774764	倏	-0.07531134
-3.8416104	窜	-0.07531134
-3.7364593	洞	-0.12945819
-3.1571906	商	-0.17065746
-3.6518693	财	-0.119951814
-3.8416104	朋	-0.18984525
-3.4194012	舞	-0.09705826
-4.0886145	伴	-0.07531134
-4.1774764	瘾	-0.07531134
-3.1571906	瓦	-0.10455614
-3.8416104	亿	-0.14411968
-3.8416104	巨	-0.07531134
-4.1774764	卦	-0.07531134
-4.0886145	廊	-0.07531134
-3.6518693	值	-0.16853401
-3.5811	故	-0.07531134
-3.7364593	际	-0.07531134
-3.9806423	忆	-0.07531134
-4.1774764	寄	-0.07531134
-4.0886145	哀	-0.07531134
-3.238096	思	-0.1079703
-4.0886145	胚	-0.07531134
-4.1774764	晴	-0.07531134
-3.8416104	浮	-0.07531134
-4.1774764	晶	-0.07531134
-4.0886145	娜	-0.07531134
-4.0886145	尧	-0.07531134
-3.8416104	燕	-0.07531134
-4.1774764	堀	-0.07531134
-3.6518693	稀	-0.119951814
-3.5811	敌	-0.11328673
-3.7364593	扰	-0.07531134
-3.7364593	翻	-0.07531134
-3.3376052	贵	-0.119951814
-4.0886145	监	-0.07531134
-4.0886145	督	-0.07531134
-4.1774764	朵	-0.07531134
-4.1774764	圃	-0.07531134
-4.1774764	菊	-0.07531134
-3.8416104	吐	-0.07531134
-3.520263	惊	-0.1083542
-3.4194012	蒙	-0.15860301
-3.9806423	躺	-0.1697121
-3.9806423	殷	-0.07531134
-4.1774764	嘱	-0.07531134
-3.7364593	予	-0.119951814
-3.3765802	港	-0.14805365
-4.0886145	勋	-0.07531134
-3.8416104	寿	-0.07531134
-4.1774764	崛	-0.07531134
-4.1774764	肮	-0.07531134
-3.6518693	吞	-0.07531134
-3.6518693	呆	-0.07531134
-4.1774764	钝	-0.07531134
-4.1774764	睛	-0.07531134
-4.0886145	塔	-0.07531134
-3.5811	兵	-0.07531134
-3.4669106	赞	-0.123668015
-3.3018415	职	-0.21108936
-3.4669106	拍	-0.16892636
-3.8416104	毕	-0.12945819
-3.7364593	移	-0.07531134
-3.7364593	级	-0.119951814
-4.0886145	侨	-0.07531134
-3.4669106	怀	-0.07531134
-3.7364593	碰	-0.07531134
-3.4669106	困	-0.19443887
-4.1774764	孝	-0.07531134
-4.1774764	匡	-0.07531134
-4.1774764	臧	-0.07531134
-4.0886145	恒	-0.07531134
-3.6518693	项	-0.119951814
-4.1774764	铅	-0.07531134
-3.520263	击	-0.07531134
-4.1774764	鹤	-0.07531134
-4.1774764	熙	-0.07531134
-4.0886145	藕	-0.07531134
-3.7364593	幸	-0.18984525
-3.5811	零	-0.12945819
-4.1774764	硫	-0.07531134
-3.6518693	吨	-0.07531134
-3.9806423	课	-0.07531134
-3.9806423	试	-0.07531134
-4.0886145	绩	-0.07531134
-3.3765802	挂	-0.15033539
-3.9806423	齐	-0.07531134
-3.9806423	巍	-0.07531134
-3.8416104	昆	-0.22391123
-4.1774764	仑	-0.07531134
-3.8416104	附	-0.14411968
-4.1774764	庸	-0.07531134
-4.1774764	毙	-0.07531134
-4.0886145	孽	-0.07531134
-3.3376052	藏	-0.095346175
-3.8416104	厌	-0.22391123
-4.0886145	默	-0.07531134
-4.0886145	寡	-0.07531134
-4.1774764	酷	-0.07531134
-3.9806423	凝	-0.1697121
-3.9806423	爹	-0.07531134
-4.1774764	轿	-0.07531134
-4.1774764	唢	-0.07531134
-4.0886145	胡	-0.07531134
-4.1774764	嫡	-0.07531134
-4.1774764	姨	-0.07531134
-3.6518693	伦	-0.07531134
-4.0886145	胞	-0.07531134
-3.8416104	堤	-0.07531134
-4.0886145	犹	-0.07531134
-3.9806423	醋	-0.07531134
-3.7364593	佳	-0.07531134
-4.1774764	肴	-0.07531134
-4.1774764	踏	-0.07531134
-3.5811	秦	-0.11328673
-4.1774764	俑	-0.07531134
-3.8416104	坑	-0.12945819
-3.7364593	阵	-0.07531134
-3.7364593	讨	-0.119951814
-4.1774764	狡	-0.07531134
-4.1774764	猾	-0.07531134
-3.7364593	抵	-0.07531134
-4.0886145	赖	-0.07531134
-3.4194012	易	-0.07531134
-3.8416104	拴	-0.07531134
-3.7364593	旧	-0.07531134
-3.5811	坏	-0.1083542
-3.7364593	妈	-0.119951814
-3.9806423	遂	-0.07531134
-3.8416104	启	-0.07531134
-4.0886145	虞	-0.07531134
-3.9806423	聪	-0.1697121
-3.5811	崖	-0.07531134
-4.0886145	牺	-0.22592057
-4.1774764	牲	-0.07531134
-3.520263	窗	-0.1083542
-4.1774764	遮	-0.07531134
-3.9806423	昏	-0.07531134
-4.1774764	朦	-0.07531134
-4.1774764	胧	-0.07531134
-3.9806423	唯	-0.07531134
-3.9806423	串	-0.07531134
-3.520263	频	-0.16892636
-3.8416104	闪	-0.07531134
-4.1774764	烁	-0.07531134
-3.5811	乎	-0.07531134
-4.0886145	颠	-0.07531134
-3.5811	倒	-0.07531134
-3.133257	油	-0.1083542
-4.1774764	羚	-0.07531134
-4.0886145	瞧	-0.07531134
-3.8416104	狼	-0.14411968
-3.8416104	虚	-0.07531134
-3.4669106	映	-0.09909031
-4.1774764	襟	-0.07531134
-3.8416104	荡	-0.22391123
-3.7364593	嗡	-0.25784233
-3.9806423	帽	-0.07531134
-4.0886145	虾	-0.1697121
-4.0886145	腺	-0.07531134
-4.0886145	仔	-0.07531134
-3.9806423	控	-0.1697121
-3.7364593	拨	-0.07531134
-3.8416104	泰	-0.07531134
-3.520263	镜	-0.14411968
-4.0886145	疲	-0.07531134
-3.4194012	软	-0.12945819
-3.9806423	赤	-0.07531134
-4.0886145	篷	-0.07531134
-3.238096	早	-0.1083542
-3.1571906	采	-0.1638298
-4.0886145	畜	-0.07531134
-4.1774764	锋	-0.07531134
-3.5811	井	-0.07531134
-3.8416104	猪	-0.07531134
-4.1774764	敞	-0.07531134
-3.4194012	封	-0.123668015
-3.9806423	哇	-0.07531134
-4.0886145	储	-0.07531134
-3.520263	具	-0.21191952
-3.3765802	奇	-0.09909031
-4.0886145	届	-0.07531134
-4.1774764	矍	-0.07531134
-4.1774764	铄	-0.07531134
-4.1774764	详	-0.07531134
-3.520263	弱	-0.07531134
-3.7364593	迫	-0.12945819
-3.9806423	宫	-0.07531134
-3.520263	步	-0.07531134
-3.8416104	薯	-0.14411968
-4.0886145	蛾	-0.07531134
-4.0886145	蛹	-0.07531134
-4.0886145	玻	-0.07531134
-3.8416104	哥	-0.07531134
-3.9806423	鲁	-0.1697121
-3.7364593	吉	-0.07531134
-3.8416104	郊	-0.14411968
-3.9806423	座	-0.07531134
-3.1825206	层	-0.10025582
-4.0886145	寓	-0.07531134
-4.0886145	塌	-0.07531134
-3.3765802	房	-0.19628012
-4.0886145	聋	-0.07531134
-3.9806423	哑	-0.07531134
-4.1774764	蒋	-0.07531134
-3.7364593	慧	-0.07531134
-4.1774764	娟	-0.07531134
-3.9806423	廖	-0.07531134
-4.1774764	鸾	-0.07531134
-4.1774764	翟	-0.07531134
-4.1774764	蓉	-0.07531134
-3.7364593	颜	-0.18984525
-3.8416104	潘	-0.07531134
-4.1774764	薛	-0.07531134
-4.0886145	昭	-0.07531134
-3.6518693	戴	-0.07531134
-3.8416104	芳	-0.07531134
-3.9806423	插	-0.07531134
-4.1774764	簪	-0.07531134
-4.1774764	牡	-0.07531134
-4.1774764	丹	-0.07531134
-4.1774764	芍	-0.07531134
-4.0886145	倍	-0.07531134
-4.0886145	阁	-0.07531134
-4.1774764	宛	-0.07531134
-4.0886145	仙	-0.07531134
-4.1774764	吟	-0.07531134
-4.0886145	描	-0.07531134
-3.6518693	苍	-0.07531134
-3.6518693	措	-0.16853401
-4.1774764	潇	-0.07531134
-4.0886145	洒	-0.07531134
-3.9806423	态	-0.07531134
-4.0886145	罢	-0.07531134
-3.9806423	楚	-0.07531134
-3.7364593	丰	-0.07531134
-3.8416104	帘	-0.07531134
-4.0886145	栋	-0.07531134
-4.1774764	暮	-0.07531134
-4.1774764	碣	-0.07531134
-3.6518693	残	-0.07531134
-3.9806423	碑	-0.07531134
-3.8416104	付	-0.07531134
-4.0886145	墩	-0.07531134
-3.8416104	湾	-0.07531134
-3.9806423	崩	-0.07531134
-4.0886145	溃	-0.07531134
-3.3376052	破	-0.11635025
-4.1774764	咨	-0.07531134
-4.1774764	询	-0.07531134
-4.1774764	氯	-0.07531134
-4.1774764	钠	-0.07531134
-4.1774764	镁	-0.07531134
-3.9806423	乒	-0.28739598
-4.1774764	乓	-0.07531134
-3.520263	角	-0.07531134
-3.7364593	狂	-0.07531134
-4.0886145	倾	-0.07531134
-4.1774764	桶	-0.07531134
-3.7364593	摄	-0.119951814
-4.0886145	氏	-0.07531134
-3.8416104	室	-0.07531134
-4.1774764	糠	-0.07531134
-3.4194012	苦	-0.09909031
-3.520263	念	-0.12881353
-3.4669106	宗	-0.07531134
-4.0886145	灵	-0.07531134
-4.0886145	蝶	-0.07531134
-3.520263	末	-0.07531134
-3.9806423	丁	-0.07531134
-3.6518693	享	-0.119951814
-4.0886145	番	-0.07531134
-3.7364593	艳	-0.12945819
-3.8416104	呢	-0.14411968
-3.4194012	哭	-0.101541445
-4.0886145	悦	-0.07531134
-4.0886145	咏	-0.22592057
-4.0886145	崔	-0.07531134
-4.0886145	琦	-0.07531134
-3.9806423	湿	-0.07531134
-3.7364593	疼	-0.12945819
-4.1774764	粘	-0.07531134
-3.5811	劳	-0.11328673
-3.7364593	累	-0.07531134
-4.1774764	忍	-0.07531134
-3.8416104	泥	-0.07531134
-4.1774764	榆	-0.07531134
-3.9806423	柜	-0.07531134
-3.9806423	冯	-0.07531134
-3.8416104	颖	-0.07531134
-3.7364593	凑	-0.07531134
-3.8416104	炒	-0.07531134
-3.9806423	股	-0.07531134
-3.7364593	跟	-0.18984525
-3.5811	烧	-0.07531134
-3.7364593	嫂	-0.07531134
-4.0886145	柬	-0.07531134
-4.1774764	谊	-0.07531134
-4.1774764	陛	-0.07531134
-4.1774764	缔	-0.07531134
-3.520263	希	-0.21191952
-4.1774764	娥	-0.07531134
-4.1774764	崭	-0.07531134
-3.7364593	循	-0.18984525
-3.7364593	途	-0.07531134
-4.0886145	径	-0.07531134
-3.9806423	赴	-0.1697121
-3.8416104	尚	-0.14411968
-4.1774764	骚	-0.07531134
-4.1774764	糜	-0.07531134
-3.7364593	烂	-0.07531134
-4.1774764	蜕	-0.07531134
-4.1774764	丫	-0.07531134
-3.5811	盼	-0.07531134
-3.520263	龙	-0.07531134
-3.9806423	跃	-0.07531134
-4.1774764	邛	-0.07531134
-4.0886145	棱	-0.07531134
-3.5811	宽	-0.07531134
-3.7364593	窄	-0.12945819
-3.7364593	呈	-0.07531134
-4.0886145	梯	-0.07531134
-3.3765802	状	-0.16853401
-4.0886145	硕	-0.07531134
-3.9806423	缕	-0.07531134
-4.1774764	伢	-0.07531134
-4.0886145	茬	-0.07531134
-4.0886145	凋	-0.22592057
-4.1774764	戛	-0.07531134
-4.0886145	愣	-0.07531134
-3.4669106	停	-0.1697121
-4.1774764	痕	-0.07531134
-3.8416104	撞	-0.07531134
-4.1774764	综	-0.07531134
-3.7364593	型	-0.07531134
-3.6518693	置	-0.07531134
-3.7364593	宇	-0.119951814
-4.0886145	轩	-0.07531134
-3.8416104	震	-0.07531134
-4.1774764	撼	-0.07531134
-3.6518693	盗	-0.07531134
-4.0886145	窃	-0.07531134
-4.0886145	兼	-0.07531134
-3.9806423	陷	-0.07531134
-3.5811	妇	-0.10455614
-4.1774764	胎	-0.07531134
-3.9806423	齿	-0.07531134
-4.0886145	姓	-0.07531134
-3.8416104	恋	-0.22391123
-4.0886145	撇	-0.07531134
-4.1774764	倡	-0.07531134
-3.8416104	荣	-0.07531134
-4.0886145	榜	-0.07531134
-3.9806423	涨	-0.07531134
-3.7364593	兴	-0.12945819
-3.9806423	趣	-0.07531134
-4.0886145	胖	-0.07531134
-4.1774764	臀	-0.07531134
-3.520263	遗	-0.18309702
-3.9806423	弃	-0.07531134
-3.6518693	毁	-0.26902655
-4.1774764	盔	-0.07531134
-3.8416104	壁	-0.07531134
-3.520263	摇	-0.18309702
-4.1774764	晃	-0.07531134
-4.1774764	簸	-0.07531134
-3.520263	密	-0.101541445
-4.0886145	蜂	-0.07531134
-4.1774764	谚	-0.07531134
-4.0886145	朗	-0.07531134
-4.0886145	袖	-0.07531134
-4.0886145	贾	-0.07531134
-4.0886145	鞋	-0.07531134
-3.6518693	勤	-0.07531134
-3.9806423	臂	-0.07531134
-4.1774764	颁	-0.07531134
-3.6518693	略	-0.07531134
-3.5811	待	-0.07531134
-3.8416104	渐	-0.07531134
-4.0886145	溶	-0.07531134
-4.0886145	辉	-0.07531134
-3.7364593	钢	-0.07531134
-3.9806423	渣	-0.07531134
-4.1774764	舟	-0.07531134
-3.6518693	复	-0.119951814
-3.9806423	构	-0.07531134
-4.1774764	搅	-0.07531134
-4.1774764	抹	-0.07531134
-3.9806423	铝	-0.07531134
-4.1774764	膏	-0.07531134
-4.1774764	砚	-0.07531134
-3.8416104	狗	-0.07531134
-4.1774764	磊	-0.07531134
-4.1774764	棋	-0.07531134
-4.1774764	羔	-0.07531134
-4.0886145	绒	-0.07531134
-3.8416104	诚	-0.07531134
-4.0886145	畅	-0.07531134
-3.7364593	甜	-0.07531134
-4.0886145	臣	-0.07531134
-4.0886145	黢	-0.07531134
-4.0886145	炯	-0.07531134
-4.1774764	履	-0.07531134
-4.1774764	矫	-0.07531134
-4.1774764	厦	-0.07531134
-3.9806423	冠	-0.1697121
-4.1774764	哽	-0.07531134
-4.1774764	媳	-0.07531134
-4.0886145	悄	-0.07531134
-4.0886145	递	-0.07531134
-4.1774764	噪	-0.07531134
-4.0886145	振	-0.07531134
-3.8416104	蚊	-0.14411968
-3.9806423	川	-0.07531134
-4.0886145	浩	-0.07531134
-3.7364593	博	-0.07531134
-4.1774764	览	-0.07531134
-3.7364593	扫	-0.07531134
-3.8416104	顽	-0.14411968
-3.8416104	诞	-0.22391123
-3.7364593	刷	-0.07531134
-3.9806423	益	-0.14411968
-4.1774764	奉	-0.07531134
-3.8416104	绸	-0.07531134
-4.0886145	捆	-0.07531134
-3.8416104	袅	-0.12945819
-4.1774764	颗	-0.07531134
-4.0886145	粒	-0.07531134
-4.1774764	替	-0.07531134
-4.1774764	檀	-0.07531134
-3.9806423	笠	-0.28739598
-4.0886145	冈	-0.07531134
-4.0886145	囊	-0.07531134
-3.9806423	娱	-0.28739598
-4.1774764	悖	-0.07531134
-4.0886145	纠	-0.07531134
-4.0886145	叹	-0.07531134
-4.1774764	笨	-0.07531134
-3.8416104	疯	-0.07531134
-4.1774764	址	-0.07531134
-4.1774764	哄	-0.07531134
-4.1774764	募	-0.07531134
-4.0886145	帷	-0.07531134
-4.1774764	萌	-0.07531134
-3.9806423	饿	-0.07531134
-4.1774764	逍	-0.07531134
-4.1774764	柯	-0.07531134
-4.0886145	鳄	-0.07531134
-4.1774764	栖	-0.07531134
-4.0886145	胆	-0.22592057
-3.9806423	莉	-0.07531134
-4.0886145	陆	-0.07531134
-3.520263	徐	-0.07531134
-4.1774764	竭	-0.07531134
-3.9806423	搞	-0.07531134
-3.9806423	滥	-0.1697121
-4.0886145	於	-0.07531134
-4.1774764	镯	-0.07531134
-4.1774764	寸	-0.07531134
-4.1774764	稍	-0.07531134
-3.9806423	滑	-0.07531134
-4.0886145	碾	-0.07531134
-4.0886145	朱	-0.07531134
-3.9806423	贺	-0.07531134
-3.9806423	搜	-0.28739598
-3.8416104	迪	-0.07531134
-4.1774764	壳	-0.07531134
-3.3765802	硬	-0.15033539
-3.4669106	岩	-0.10455614
-4.1774764	档	-0.07531134
-4.1774764	蹭	-0.07531134
-3.8416104	汽	-0.22391123
-4.1774764	喇	-0.07531134
-4.1774764	叭	-0.07531134
-4.0886145	惯	-0.07531134
-4.1774764	淘	-0.07531134
-4.1774764	姆	-0.07531134
-4.1774764	奴	-0.07531134
-4.1774764	邪	-0.07531134
-3.8416104	休	-0.07531134
-4.1774764	屠	-0.07531134
-3.8416104	梁	-0.07531134
-4.1774764	葆	-0.07531134
-4.0886145	泡	-0.07531134
-4.1774764	攀	-0.07531134
-3.8416104	桩	-0.07531134
-4.0886145	拐	-0.07531134
-4.1774764	罅	-0.07531134
-4.1774764	隙	-0.07531134
-3.9806423	凭	-0.07531134
-4.0886145	洱	-0.07531134
-3.5811	抽	-0.11328673
-4.0886145	筷	-0.22592057
-3.7364593	慕	-0.07531134
-4.0886145	泵	-0.07531134
-3.9806423	捉	-0.07531134
-3.7364593	咸	-0.32082123
-3.7364593	汪	-0.119951814
-4.1774764	邝	-0.07531134
-4.1774764	鼎	-0.07531134
-3.8416104	沸	-0.07531134
-3.9806423	旗	-0.07531134
-3.520263	飘	-0.13591339
-4.1774764	碌	-0.07531134
-4.1774764	挑	-0.07531134
-4.1774764	掺	-0.07531134
-4.1774764	苑	-0.07531134
-4.0886145	荀	-0.07531134
-3.8416104	免	-0.07531134
-3.9806423	审	-0.28739598
-4.0886145	塑	-0.07531134
-4.1774764	唉	-0.07531134
-4.1774764	蜡	-0.07531134
-3.9806423	瓶	-0.07531134
-3.9806423	蹦	-0.07531134
-4.0886145	昔	-0.22592057
-3.7364593	棍	-0.07531134
-3.6518693	纯	-0.07531134
-4.1774764	粹	-0.07531134
-4.0886145	瞎	-0.1697121
-3.9806423	巧	-0.07531134
-3.8416104	辣	-0.14411968
-4.1774764	述	-0.07531134
-3.9806423	退	-0.07531134
-3.8416104	缩	-0.07531134
-4.0886145	迈	-0.07531134
-3.8416104	鸦	-0.14411968
-3.8416104	岛	-0.07531134
-4.1774764	兀	-0.07531134
-4.1774764	嶙	-0.07531134
-4.1774764	峋	-0.07531134
-4.1774764	礁	-0.07531134
-4.1774764	葳	-0.07531134
-4.1774764	蕤	-0.07531134
-3.9806423	塘	-0.07531134
-4.1774764	沽	-0.07531134
-3.8416104	炎	-0.07531134
-4.0886145	翰	-0.07531134
-4.1774764	昵	-0.07531134
-4.1774764	茨	-0.07531134
-3.6518693	初	-0.119951814
-4.1774764	矩	-0.07531134
-4.1774764	偕	-0.07531134
-3.7364593	姑	-0.18984525
-4.1774764	惬	-0.07531134
-4.0886145	糁	-0.07531134
-4.0886145	谓	-0.07531134
-4.0886145	诀	-0.07531134
-4.1774764	窍	-0.07531134
-3.520263	债	-0.20465688
-4.0886145	摊	-0.07531134
-4.0886145	佐	-0.07531134
-4.1774764	唠	-0.07531134
-4.1774764	嗑	-0.07531134
-4.0886145	堆	-0.07531134
-3.4194012	筹	-0.15033539
-4.0886145	炊	-0.07531134
-3.9806423	凉	-0.07531134
-4.1774764	吩	-0.07531134
-4.1774764	咐	-0.07531134
-4.1774764	苹	-0.07531134
-3.7364593	脆	-0.07531134
-4.1774764	贮	-0.07531134
-4.0886145	杭	-0.07531134
-3.9806423	悉	-0.07531134
-4.0886145	庭	-0.07531134
-4.1774764	袁	-0.07531134
-4.0886145	砌	-0.07531134
-4.0886145	葱	-0.07531134
-3.7364593	哪	-0.12945819
-3.8416104	舒	-0.07531134
-4.0886145	喉	-0.07531134
-4.1774764	咙	-0.07531134
-4.1774764	剌	-0.07531134
-3.8416104	喝	-0.07531134
-4.0886145	扼	-0.07531134
-4.1774764	趋	-0.07531134
-3.9806423	蝇	-0.07531134
-4.0886145	昨	-0.22592057
-3.7364593	恐	-0.07531134
-4.1774764	借	-0.07531134
-3.8416104	嘉	-0.14411968
-4.0886145	陵	-0.07531134
-4.0886145	疏	-0.07531134
-4.1774764	浚	-0.07531134
-3.9806423	漏	-0.07531134
-3.7364593	币	-0.1083542
-4.1774764	爸	-0.07531134
-4.0886145	戒	-0.07531134
-3.9806423	昼	-0.1697121
-4.0886145	睡	-0.07531134
-3.9806423	庙	-0.07531134
-3.8416104	寺	-0.07531134
-4.0886145	庵	-0.07531134
-4.0886145	肠	-0.07531134
-4.1774764	肚	-0.07531134
-3.8416104	淡	-0.07531134
-3.8416104	逸	-0.07531134
-4.1774764	漆	-0.07531134
-3.4669106	怪	-0.07531134
-3.7364593	录	-0.12945819
-3.9806423	玲	-0.07531134
-4.1774764	鏖	-0.07531134
-4.1774764	堵	-0.07531134
-4.1774764	瘟	-0.07531134
-4.1774764	铎	-0.07531134
-4.1774764	夕	-0.07531134
-4.1774764	饺	-0.07531134
-3.8416104	检	-0.07531134
-4.0886145	施	-0.14411968
-3.6518693	诸	-0.16853401
-4.1774764	宸	-0.07531134
-4.0886145	蕾	-0.07531134
-3.8416104	篮	-0.18984525
-4.1774764	瓣	-0.07531134
-4.1774764	撒	-0.07531134
-4.0886145	沐	-0.22592057
-4.1774764	搓	-0.07531134
-4.0886145	惶	-0.07531134
-3.9806423	歪	-0.07531134
-4.0886145	伸	-0.07531134
-4.1774764	佚	-0.07531134
-4.1774764	窥	-0.07531134
-4.1774764	躲	-0.07531134
-4.1774764	旮	-0.07531134
-4.1774764	旯	-0.07531134
-4.1774764	淌	-0.07531134
-4.1774764	泪	-0.07531134
-4.0886145	孥	-0.07531134
-3.9806423	亦	-0.07531134
-3.520263	颇	-0.1083542
-4.1774764	怔	-0.07531134
-3.9806423	载	-0.07531134
-4.1774764	僻	-0.07531134
-3.9806423	宿	-0.28739598
-3.8416104	峦	-0.07531134
-4.0886145	媚	-0.07531134
-4.1774764	盎	-0.07531134
-3.9806423	仓	-0.07531134
-4.1774764	囤	-0.07531134
-4.1774764	亟	-0.07531134
-4.1774764	勘	-0.07531134
-4.0886145	冶	-0.22592057
-4.0886145	贩	-0.07531134
-4.1774764	肌	-0.07531134
-4.1774764	梗	-0.07531134
-4.0886145	腹	-0.07531134
-3.8416104	宝	-0.07531134
-4.1774764	饷	-0.07531134
-3.9806423	逢	-0.07531134
-3.7364593	歌	-0.1697121
-3.5811	购	-0.1083542
-3.5811	欲	-0.07531134
-3.9806423	答	-0.07531134
-4.0886145	曹	-0.07531134
-4.0886145	祯	-0.07531134
-4.1774764	梧	-0.07531134
-3.520263	婚	-0.07531134
-4.0886145	揣	-0.07531134
-3.8416104	砖	-0.07531134
-4.1774764	嘀	-0.07531134
-4.0886145	咕	-0.07531134
-4.1774764	惠	-0.07531134
-3.9806423	缠	-0.07531134
-4.1774764	鲨	-0.07531134
-4.0886145	貌	-0.07531134
-4.0886145	善	-0.07531134
-3.9806423	归	-0.07531134
-4.1774764	邸	-0.07531134
-4.0886145	浙	-0.22592057
-4.1774764	耶	-0.07531134
-4.1774764	稣	-0.07531134
-3.7364593	篇	-0.07531134
-3.9806423	朴	-0.07531134
-4.1774764	胁	-0.07531134
-4.0886145	袭	-0.07531134
-4.1774764	抬	-0.07531134
-3.8416104	魔	-0.07531134
-3.9806423	魄	-0.07531134
-4.1774764	炭	-0.07531134
-3.8416104	禁	-0.12945819
-4.0886145	嗓	-0.07531134
-3.8416104	域	-0.07531134
-4.0886145	厚	-0.07531134
-3.9806423	颤	-0.07531134
-4.1774764	峨	-0.07531134
-4.1774764	骤	-0.07531134
-4.1774764	掠	-0.07531134
-4.0886145	茫	-0.07531134
-4.1774764	倘	-0.07531134
-4.1774764	幄	-0.07531134
-4.0886145	佩	-0.07531134
-3.7364593	刻	-0.07531134
-3.9806423	颅	-0.28739598
-3.9806423	脉	-0.07531134
-4.0886145	粥	-0.22592057
-4.1774764	斑	-0.07531134
-4.0886145	雀	-0.07531134
-4.0886145	踪	-0.07531134
-3.9806423	喷	-0.07531134
-4.0886145	涂	-0.07531134
-4.1774764	樱	-0.07531134
-4.1774764	莺	-0.07531134
-4.1774764	蔷	-0.07531134
-4.1774764	薇	-0.07531134
-4.1774764	悬	-0.07531134
-4.1774764	娑	-0.07531134
-4.1774764	滋	-0.07531134
-4.1774764	惧	-0.07531134
-3.8416104	宾	-0.07531134
-4.0886145	戳	-0.07531134
-3.9806423	伯	-0.07531134
-3.9806423	勃	-0.14411968
-4.0886145	悟	-0.07531134
-3.7364593	暖	-0.07531134
-3.520263	柔	-0.10455614
-4.0886145	逐	-0.07531134
-3.9806423	牧	-0.07531134
-3.7364593	淋	-0.07531134
-4.1774764	曝	-0.07531134
-3.7364593	充	-0.12945819
-3.9806423	守	-0.07531134
-4.1774764	畏	-0.07531134
-3.8416104	险	-0.07531134
-4.0886145	谱	-0.07531134
-4.0886145	悲	-0.07531134
-4.1774764	凯	-0.07531134
-4.1774764	龈	-0.07531134
-3.9806423	辛	-0.07531134
-4.1774764	陋	-0.07531134
-4.1774764	嘲	-0.07531134
-4.1774764	傅	-0.07531134
-3.7364593	甩	-0.07531134
-4.0886145	沫	-0.07531134
-3.9806423	颈	-0.07531134
-4.1774764	旷	-0.07531134
-4.0886145	刮	-0.07531134
-4.1774764	吗	-0.07531134
-4.1774764	噩	-0.07531134
-4.0886145	耗	-0.07531134
-4.0886145	愤	-0.07531134
-4.1774764	膺	-0.07531134
-4.0886145	斥	-0.07531134
-4.1774764	卑	-0.07531134
-4.1774764	鄙	-0.07531134
-4.1774764	耻	-0.07531134
-3.9806423	架	-0.07531134
-4.1774764	哐	-0.07531134
-4.1774764	啷	-0.07531134
-4.1774764	摞	-0.07531134
-4.1774764	坤	-0.07531134
-4.0886145	佤	-0.07531134
-4.1774764	罂	-0.07531134
-4.1774764	粟	-0.07531134
-3.9806423	摔	-0.07531134
-3.9806423	琳	-0.07531134
-3.9806423	操	-0.07531134
-3.6518693	担	-0.15392758
-4.1774764	扯	-0.07531134
-4.0886145	倚	-0.07531134
-4.1774764	框	-0.07531134
-4.1774764	肘	-0.07531134
-4.0886145	趔	-0.07531134
-4.0886145	趄	-0.07531134
-4.0886145	坝	-0.07531134
-3.9806423	瘦	-0.07531134
-4.1774764	佻	-0.07531134
-4.1774764	勰	-0.07531134
-3.9806423	疑	-0.07531134
-4.1774764	弊	-0.07531134
-4.1774764	攻	-0.07531134
-4.1774764	刃	-0.07531134
-4.1774764	巷	-0.07531134
-4.1774764	吾	-0.07531134
-4.1774764	盲	-0.07531134
-4.0886145	廷	-0.07531134
-3.9806423	坛	-0.07531134
-4.0886145	俱	-0.07531134
-4.1774764	舆	-0.07531134
-3.8416104	蒸	-0.07531134
-3.8416104	折	-0.07531134
-4.1774764	隘	-0.07531134
-4.0886145	叮	-0.07531134
-4.1774764	抚	-0.07531134
-3.8416104	糖	-0.07531134
-4.1774764	梨	-0.07531134
-3.7364593	编	-0.07531134
-4.1774764	荟	-0.07531134
-4.1774764	萃	-0.07531134
-3.9806423	掌	-0.1697121
-4.0886145	爆	-0.07531134
-3.9806423	黔	-0.07531134
-4.1774764	柑	-0.07531134
-4.1774764	桔	-0.07531134
-4.1774764	曳	-0.07531134
-4.1774764	韦	-0.07531134
-4.1774764	羡	-0.07531134
-4.0886145	乙	-0.07531134
-4.1774764	痊	-0.07531134
-4.0886145	禺	-0.07531134
-4.0886145	郎	-0.07531134
-4.1774764	恳	-0.07531134
-4.0886145	祝	-0.07531134
-4.1774764	蕴	-0.07531134
-4.1774764	傩	-0.07531134
-4.0886145	耘	-0.07531134
-4.1774764	芬	-0.07531134
-4.1774764	趴	-0.07531134
-4.1774764	黎	-0.07531134
-3.9806423	贡	-0.07531134
-3.9806423	峰	-0.07531134
-4.1774764	雏	-0.07531134
-4.1774764	秩	-0.07531134
-3.7364593	谋	-0.12945819
-3.7364593	寨	-0.07531134
-4.1774764	脾	-0.07531134
-4.1774764	歇	-0.07531134
-4.1774764	铜	-0.07531134
-4.1774764	钿	-0.07531134
-3.9806423	补	-0.07531134
-4.0886145	琢	-0.07531134
-4.0886145	捧	-0.07531134
-4.1774764	茅	-0.07531134
-4.1774764	袍	-0.07531134
-4.1774764	酥	-0.07531134
-4.0886145	骑	-0.07531134
-4.1774764	骋	-0.07531134
-4.1774764	符	-0.07531134
-4.1774764	桓	-0.07531134
-4.1774764	淦	-0.07531134
-4.1774764	忻	-0.07531134
-4.0886145	贤	-0.07531134
-3.9806423	逝	-0.07531134
-3.8416104	返	-0.07531134
-4.1774764	窘	-0.07531134
-4.1774764	沏	-0.07531134
-4.1774764	斟	-0.07531134
-4.1774764	漠	-0.07531134
-3.9806423	促	-0.07531134
-3.9806423	垦	-0.07531134
-4.1774764	妾	-0.07531134
-3.5811	街	-0.11328673
-4.1774764	茁	-0.07531134
-3.6518693	腌	-0.119951814
-4.0886145	拌	-0.07531134
-4.1774764	净	-0.07531134
-4.1774764	斌	-0.07531134
-4.0886145	雕	-0.07531134
-4.0886145	毅	-0.07531134
-4.0886145	梭	-0.07531134
-4.1774764	慷	-0.07531134
-4.1774764	慨	-0.07531134
-4.1774764	壤	-0.07531134
-3.520263	虽	-0.14328635
-4.0886145	惨	-0.07531134
-4.0886145	嚼	-0.07531134
-4.0886145	厨	-0.07531134
-4.0886145	契	-0.07531134
-4.1774764	饶	-0.07531134
-4.1774764	恕	-0.07531134
-4.1774764	庇	-0.07531134
-4.1774764	贼	-0.07531134
-4.0886145	娶	-0.07531134
-4.1774764	嫁	-0.07531134
-4.1774764	茏	-0.07531134
-4.1774764	槎	-0.07531134
-4.1774764	桠	-0.07531134
-4.1774764	虬	-0.07531134
-4.0886145	蔚	-0.07531134
-4.1774764	铿	-0.07531134
-4.1774764	锵	-0.07531134
-4.1774764	铃	-0.07531134
-4.1774764	锻	-0.07531134
-3.8416104	鸿	-0.07531134
-3.9806423	牟	-0.07531134
-4.0886145	逼	-0.07531134
-4.0886145	淫	-0.07531134
-4.1774764	嫖	-0.07531134
-4.1774764	娼	-0.07531134
-4.1774764	赌	-0.07531134
-4.1774764	睫	-0.07531134
-4.0886145	摆	-0.07531134
-4.1774764	娇	-0.07531134
-4.0886145	皆	-0.07531134
-4.1774764	愚	-0.07531134
-4.1774764	叛	-0.07531134
-4.1774764	贿	-0.07531134
-4.1774764	辆	-0.07531134
-4.0886145	呜	-0.07531134
-4.1774764	擎	-0.07531134
-4.1774764	镑	-0.07531134
-4.1774764	揆	-0.07531134
-4.0886145	舰	-0.07531134
-3.9806423	郑	-0.07531134
-4.0886145	糙	-0.07531134
-4.1774764	澡	-0.07531134
-3.8416104	蛙	-0.12945819
-4.1774764	捞	-0.07531134
-4.1774764	蛆	-0.07531134
-4.1774764	蚯	-0.07531134
-4.1774764	蚓	-0.07531134
-4.0886145	虫	-0.07531134
-4.1774764	掐	-0.07531134
-4.1774764	鲍	-0.07531134
-4.1774764	阎	-0.07531134
-4.1774764	捅	-0.07531134
-4.1774764	糟	-0.07531134
-4.0886145	劝	-0.07531134
-3.9806423	驶	-0.07531134
-4.1774764	溪	-0.07531134
-3.9806423	爬	-0.07531134
-4.1774764	澄	-0.07531134
-4.0886145	旭	-0.07531134
-4.1774764	龚	-0.07531134
-4.1774764	藩	-0.07531134
-4.1774764	硝	-0.07531134
-4.1774764	胺	-0.07531134
-4.1774764	雁	-0.07531134
-4.1774764	匕	-0.07531134
-4.1774764	慌	-0.07531134
-4.1774764	笋	-0.07531134
-3.8416104	奈	-0.07531134
-3.8416104	胃	-0.07531134
-4.1774764	桀	-0.07531134
-4.1774764	纣	-0.07531134
-3.520263	错	-0.07531134
-3.6518693	抛	-0.16853401
-4.1774764	渡	-0.07531134
-4.1774764	爵	-0.07531134
-4.1774764	湍	-0.07531134
-3.9806423	崇	-0.07531134
-3.9806423	帝	-0.07531134
-4.1774764	驾	-0.07531134
-4.1774764	涕	-0.07531134
-4.1774764	旺	-0.07531134
-3.9806423	棒	-0.07531134
-4.0886145	艇	-0.07531134
-4.1774764	敖	-0.07531134
-3.520263	仪	-0.22491471
-4.1774764	昙	-0.07531134
-4.1774764	叔	-0.07531134
-4.1774764	贞	-0.07531134
-4.1774764	幻	-0.07531134
-4.1774764	沧	-0.07531134
-4.0886145	眺	-0.07531134
-4.1774764	帆	-0.07531134
-4.0886145	滔	-0.07531134
-4.1774764	葡	-0.07531134
-4.1774764	圣	-0.07531134
-4.1774764	鳊	-0.07531134
-4.1774764	胭	-0.07531134
-4.1774764	脂	-0.07531134
-4.1774764	忐	-0.07531134
-4.1774764	忑	-0.07531134
-4.1774764	柄	-0.07531134
-4.0886145	柏	-0.07531134
-4.1774764	卉	-0.07531134
-4.1774764	络	-0.07531134
-4.1774764	浦	-0.07531134
-4.1774764	紫	-0.07531134
-4.1774764	挣	-0.07531134
-4.1774764	靛	-0.07531134
-4.0886145	酱	-0.22592057
-4.0886145	拟	-0.07531134
-4.0886145	裂	-0.07531134
-4.1774764	揭	-0.07531134
-4.1774764	颍	-0.07531134
-4.1774764	钮	-0.07531134
-4.1774764	乖	-0.07531134
-4.0886145	砸	-0.07531134
-4.1774764	摧	-0.07531134
-4.0886145	店	-0.07531134
-4.1774764	瞠	-0.07531134
-4.0886145	舌	-0.07531134
-4.1774764	摭	-0.07531134
-4.1774764	泠	-0.07531134
-4.1774764	胄	-0.07531134
-4.1774764	藻	-0.07531134
-3.7364593	版	-0.07531134
-4.1774764	朔	-0.07531134
-4.1774764	弗	-0.07531134
-4.1774764	芮	-0.07531134
-3.9806423	粤	-0.07531134
-3.9806423	椒	-0.07531134
-3.8416104	琼	-0.14411968
-4.0886145	孟	-0.07531134
-4.1774764	禹	-0.07531134
-4.0886145	仁	-0.07531134
-4.1774764	蒲	-0.07531134
-4.0886145	君	-0.07531134
-4.1774764	肖	-0.07531134
-4.0886145	屈	-0.07531134
-4.1774764	骆	-0.07531134
-4.1774764	瑛	-0.07531134
-4.1774764	l	-0.07531134
-4.1774764	=	-0.07531134
-4.0886145	锅	-0.07531134
-4.1774764	蔡	-0.07531134
-4.1774764	睐	-0.07531134
-3.9806423	衰	-0.1697121
-3.9806423	贝	-0.07531134
-4.0886145	敦	-0.07531134
-4.0886145	煌	-0.07531134
-4.1774764	窟	-0.07531134
-4.1774764	腊	-0.07531134
-4.1774764	婶	-0.07531134
-4.1774764	帅	-0.07531134
-4.1774764	剩	-0.07531134
-4.1774764	曰	-0.07531134
-4.1774764	贲	-0.07531134
-4.0886145	瘤	-0.07531134
-4.1774764	肤	-0.07531134
-4.1774764	冻	-0.07531134
-3.8416104	啥	-0.07531134
-4.0886145	虎	-0.07531134
-4.0886145	测	-0.07531134
-4.0886145	诊	-0.07531134
-4.1774764	嘶	-0.07531134
-4.1774764	堡	-0.07531134
-4.1774764	寇	-0.07531134
-4.1774764	翘	-0.07531134
-4.1774764	闯	-0.07531134
-3.9806423	帕	-0.07531134
-4.1774764	署	-0.07531134
-3.8416104	披	-0.07531134
-4.1774764	绮	-0.07531134
-4.1774764	缨	-0.07531134
-4.0886145	臭	-0.07531134
-4.1774764	烨	-0.07531134
-3.9806423	掩	-0.1697121
-4.1774764	嶂	-0.07531134
-3.9806423	肿	-0.28739598
-4.1774764	辰	-0.07531134
-4.1774764	媒	-0.07531134
-4.0886145	姻	-0.07531134
-4.1774764	滦	-0.07531134
-4.1774764	坨	-0.07531134
-4.0886145	羽	-0.07531134
-4.1774764	霸	-0.07531134
-4.1774764	疵	-0.07531134
-4.1774764	欺	-0.07531134
-4.0886145	霜	-0.07531134
-4.1774764	傲	-0.07531134
-4.1774764	侠	-0.07531134
-4.1774764	漓	-0.07531134
-3.7364593	离	-0.12945819
-4.1774764	忠	-0.07531134
-4.1774764	缢	-0.07531134
-4.1774764	墅	-0.07531134
-4.1774764	矽	-0.07531134
-4.1774764	璃	-0.07531134
-4.1774764	罔	-0.07531134
-3.7364593	侵	-0.32082123
-4.1774764	屿	-0.07531134
-4.1774764	噜	-0.07531134
-4.1774764	拆	-0.07531134
-4.1774764	啃	-0.07531134
-4.1774764	貉	-0.07531134
-4.0886145	憨	-0.07531134
-4.1774764	嬉	-0.07531134
-4.1774764	棠	-0.07531134
-4.1774764	蕃	-0.07531134
-4.1774764	茄	-0.07531134
-4.0886145	蛋	-0.07531134
-4.1774764	榨	-0.07531134
-4.1774764	萦	-0.07531134
-4.1774764	践	-0.07531134
-4.1774764	楞	-0.07531134
-4.1774764	痴	-0.07531134
-4.1774764	癖	-0.07531134
-4.1774764	愉	-0.07531134
-4.1774764	跌	-0.07531134
-4.1774764	鎏	-0.07531134
-4.0886145	柱	-0.07531134
-4.1774764	檐	-0.07531134
-4.1774764	樾	-0.07531134
-4.1774764	狙	-0.07531134
-4.1774764	轰	-0.07531134
-4.0886145	敏	-0.07531134
-3.9806423	册	-0.07531134
-4.1774764	迭	-0.07531134
-4.1774764	惭	-0.07531134
-4.0886145	愧	-0.07531134
-4.1774764	恼	-0.07531134
-4.1774764	稗	-0.07531134
-4.0886145	筒	-0.07531134
-4.0886145	诈	-0.22592057
-4.1774764	骗	-0.07531134
-4.1774764	赣	-0.07531134
-4.0886145	瓷	-0.07531134
-4.1774764	珑	-0.07531134
-4.0886145	藤	-0.07531134
-4.1774764	峭	-0.07531134
-3.9806423	券	-0.07531134
-4.1774764	敷	-0.07531134
-4.1774764	溅	-0.07531134
-4.1774764	纬	-0.07531134
-4.1774764	缆	-0.07531134
-4.1774764	豁	-0.07531134
-4.0886145	饼	-0.07531134
-4.1774764	栓	-0.07531134
-4.1774764	迥	-0.07531134
-4.0886145	俏	-0.07531134
-4.1774764	煽	-0.07531134
-3.9806423	灰	-0.07531134
-4.1774764	饵	-0.07531134
-4.1774764	蹬	-0.07531134
-4.1774764	戈	-0.07531134
-4.1774764	蒂	-0.07531134
-4.1774764	贷	-0.07531134
-4.1774764	伐	-0.07531134
-4.0886145	炉	-0.22592057
-3.9806423	枇	-0.28739598
-4.1774764	杷	-0.07531134
-4.1774764	恨	-0.07531134
-4.1774764	椎	-0.07531134
-4.1774764	慎	-0.07531134
-4.1774764	挽	-0.07531134
-4.1774764	棵	-0.07531134
-4.0886145	蓬	-0.07531134
-4.0886145	猩	-0.07531134
-4.1774764	唾	-0.07531134
-4.1774764	擒	-0.07531134
-4.0886145	蚀	-0.22592057
-3.9806423	疆	-0.07531134
-4.1774764	屡	-0.07531134
-4.1774764	鑫	-0.07531134
-4.1774764	魁	-0.07531134
-4.1774764	醇	-0.07531134
-4.0886145	哨	-0.07531134
-4.1774764	歧	-0.07531134
-4.1774764	殴	-0.07531134
-4.1774764	虐	-0.07531134
-4.1774764	孤	-0.07531134
-4.1774764	妩	-0.07531134
-4.0886145	凄	-0.07531134
-4.1774764	懦	-0.07531134
-4.1774764	嚎	-0.07531134
-4.1774764	忧	-0.07531134
-4.1774764	骈	-0.07531134
-4.1774764	妖	-0.07531134
-4.1774764	桐	-0.07531134
-4.1774764	谬	-0.07531134
-4.0886145	坳	-0.07531134
-4.1774764	弥	-0.07531134
-3.9806423	评	-0.07531134
-4.1774764	丈	-0.07531134
-4.1774764	码	-0.07531134
-4.1774764	卜	-0.07531134
-4.1774764	嫣	-0.07531134
-4.1774764	椭	-0.07531134
-4.0886145	勾	-0.07531134
-4.1774764	嘈	-0.07531134
-4.1774764	捷	-0.07531134
-4.1774764	诬	-0.07531134
-4.1774764	蔑	-0.07531134
-4.1774764	狎	-0.07531134
-4.1774764	妓	-0.07531134
-4.0886145	眨	-0.07531134
-4.1774764	咧	-0.07531134
-4.1774764	纱	-0.07531134
-4.1774764	朽	-0.07531134
-4.1774764	寝	-0.07531134
-4.1774764	砀	-0.07531134
-4.0886145	掘	-0.07531134
-4.1774764	睑	-0.07531134
-4.1774764	召	-0.07531134
-4.1774764	爽	-0.07531134
-4.1774764	怡	-0.07531134
-4.1774764	椰	-0.07531134
-4.1774764	埔	-0.07531134
-4.1774764	捣	-0.07531134
-4.0886145	绳	-0.07531134
-4.0886145	浸	-0.07531134
-4.0886145	嗅	-0.07531134
-4.1774764	诽	-0.07531134
-4.1774764	谤	-0.07531134
-4.1774764	蹈	-0.07531134
-4.1774764	隋	-0.07531134
-4.1774764	炀	-0.07531134
-4.1774764	庖	-0.07531134
-4.1774764	擅	-0.07531134
-4.1774764	乃	-0.07531134
-4.0886145	巫	-0.07531134
-4.1774764	吊	-0.07531134
-4.1774764	芜	-0.07531134
-4.1774764	嫌	-0.07531134
-4.1774764	衍	-0.07531134
-4.1774764	疡	-0.07531134
-4.1774764	涌	-0.07531134
-4.0886145	枉	-0.07531134
-4.1774764	祸	-0.07531134
-4.1774764	妄	-0.07531134
-4.1774764	败	-0.07531134
-4.1774764	簇	-0.07531134
-4.1774764	罩	-0.07531134
-4.1774764	枕	-0.07531134
-4.1774764	撕	-0.07531134
-4.1774764	撩	-0.07531134
-4.1774764	幔	-0.07531134
-4.1774764	瑶	-0.07531134
-4.1774764	莲	-0.07531134
-4.1774764	炖	-0.07531134
-4.1774764	撑	-0.07531134
-4.1774764	宙	-0.07531134
-4.1774764	隔	-0.07531134
-4.1774764	涉	-0.07531134
-4.1774764	役	-0.07531134
-4.0886145	蝎	-0.07531134
-4.1774764	萎	-0.07531134
-4.1774764	惹	-0.07531134
-4.1774764	煦	-0.07531134
-4.1774764	婷	-0.07531134
-4.1774764	玫	-0.07531134
-4.1774764	瑰	-0.07531134
-4.1774764	赵	-0.07531134
-4.1774764	泣	-0.07531134
-4.1774764	侬	-0.07531134
-4.1774764	樵	-0.07531134
-4.0886145	携	-0.07531134
-4.1774764	樟	-0.07531134
-4.1774764	洽	-0.07531134
-4.1774764	摩	-0.07531134
-4.0886145	芭	-0.22592057
-4.1774764	缀	-0.07531134
-4.1774764	互	-0.07531134
-4.1774764	唤	-0.07531134
-4.0886145	呵	-0.07531134
-4.1774764	迨	-0.07531134
-4.1774764	荫	-0.07531134
-4.1774764	磋	-0.07531134
-4.0886145	呱	-0.07531134
-4.1774764	驱	-0.07531134
-4.1774764	巩	-0.07531134
-4.1774764	妊	-0.07531134
-4.1774764	娠	-0.07531134
-4.1774764	毗	-0.07531134
-4.1774764	迦	-0.07531134
-4.1774764	袱	-0.07531134
-4.1774764	怨	-0.07531134
-4.0886145	宜	-0.07531134
-4.0886145	棚	-0.07531134
-4.0886145	蒜	-0.07531134
-4.1774764	焚	-0.07531134
-4.1774764	巡	-0.07531134
-4.1774764	逻	-0.07531134
-4.1774764	浅	-0.07531134
-4.1774764	裙	-0.07531134
-4.0886145	魅	-0.22592057
-4.1774764	醉	-0.07531134
-4.1774764	隽	-0.07531134
-4.1774764	菰	-0.07531134
-4.1774764	莼	-0.07531134
-4.1774764	羹	-0.07531134
-4.1774764	鲈	-0.07531134
-4.1774764	脍	-0.07531134
-4.1774764	狭	-0.07531134
-4.1774764	乏	-0.07531134
-4.1774764	轴	-0.07531134
-4.0886145	鸳	-0.22592057
-4.1774764	鸯	-0.07531134
-4.1774764	惆	-0.07531134
-4.1774764	怅	-0.07531134
-4.1774764	谍	-0.07531134
-4.1774764	菱	-0.07531134
-4.1774764	讷	-0.07531134
-4.1774764	瞄	-0.07531134
-4.0886145	荧	-0.22592057
-4.1774764	鳝	-0.07531134
-4.1774764	刊	-0.07531134
-4.1774764	沮	-0.07531134
-3.9806423	晕	-0.07531134
-4.1774764	炫	-0.07531134
-4.1774764	甫	-0.07531134
-4.1774764	訾	-0.07531134
-4.1774764	莎	-0.07531134
-4.1774764	滞	-0.07531134
-4.1774764	缓	-0.07531134
-4.1774764	懒	-0.07531134
-4.1774764	惰	-0.07531134
-4.1774764	尉	-0.07531134
-4.0886145	衫	-0.07531134
-4.1774764	袜	-0.07531134
-4.1774764	钞	-0.07531134
-4.1774764	磁	-0.07531134
-4.1774764	泞	-0.07531134
-4.1774764	咱	-0.07531134
-4.0886145	勿	-0.22592057
-4.1774764	毋	-0.07531134
-4.1774764	锨	-0.07531134
-4.0886145	哼	-0.07531134
-4.0886145	唧	-0.07531134
-4.1774764	铍	-0.07531134
-4.1774764	浆	-0.07531134
-4.1774764	铬	-0.07531134
-4.1774764	硅	-0.07531134
-4.1774764	芯	-0.07531134
-4.0886145	怖	-0.07531134
-4.1774764	郝	-0.07531134
-4.1774764	捏	-0.07531134
-4.1774764	菇	-0.07531134
-4.1774764	靖	-0.07531134
-4.0886145	秒	-0.07531134
-4.1774764	畴	-0.07531134
-4.0886145	噌	-0.1697121
-4.1774764	钥	-0.07531134
-4.1774764	匙	-0.07531134
-4.1774764	踢	-0.07531134
-4.1774764	踹	-0.07531134
-4.0886145	奎	-0.07531134
-4.1774764	腔	-0.07531134
-4.1774764	曼	-0.07531134
-4.1774764	怯	-0.07531134
-3.8416104	殡	-0.14411968
-4.1774764	恢	-0.07531134
-4.1774764	醒	-0.07531134
-4.1774764	彼	-0.07531134
-4.1774764	茧	-0.07531134
-4.0886145	缫	-0.22592057
-4.0886145	沁	-0.07531134
-4.1774764	娅	-0.07531134
-4.1774764	辍	-0.07531134
-4.1774764	咛	-0.07531134
-4.1774764	亨	-0.07531134
-4.1774764	畸	-0.07531134
-4.1774764	渠	-0.07531134
-4.1774764	澈	-0.07531134
-4.1774764	辕	-0.07531134
-4.1774764	衬	-0.07531134
-4.1774764	裔	-0.07531134
-4.1774764	纽	-0.07531134
-4.1774764	匿	-0.07531134
-4.1774764	喧	-0.07531134
-4.1774764	祈	-0.07531134

\2-grams:
-1.1128474	想 </s>	0
-1.6601312	先 </s>	0
-1.6924185	决 </s>	0
-1.4590944	的 </s>	0
-1.7388785	问 </s>	0
-1.097083	题 </s>	0
-1.3832272	判 </s>	0
-1.7154884	得 </s>	0
-1.7771465	有 </s>	0
-1.9387958	一 </s>	0
-1.7341127	个 </s>	0
-1.6253691	量 </s>	0
-1.1318415	子 </s>	0
-1.7771034	我 </s>	0
-1.414071	走 </s>	0
-1.2732561	出 </s>	0
-1.6292694	门 </s>	0
-0.8878815	去 </s>	0
-1.4426434	庆 </s>	0
-1.6312242	才 </s>	0
-1.5744077	土 </s>	0
-1.288361	里 </s>	0
-1.5483251	啊 </s>	0
-1.7296857	和 </s>	0
-1.5080186	家 </s>	0
-1.4057479	下 </s>	0
-1.6752901	住 </s>	0
-0.8343695	了 </s>	0
-1.3450513	书 </s>	0
-1.5492996	记 </s>	0
-1.4783359	灾 </s>	0
-0.9439075	圈 </s>	0
-1.5334591	种 </s>	0
-1.6216938	草 </s>	0
-1.5796077	维 </s>	0
-1.5376092	持 </s>	0
-1.7743824	月 </s>	0
-1.6137735	则 </s>	0
-1.7200072	损 </s>	0
-1.4831848	失 </s>	0
-1.569588	大 </s>	0
-1.7109112	王 </s>	0
-1.1928844	位 </s>	0
-1.7412754	后 </s>	0
-1.5722367	众 </s>	0
-1.0426509	死 </s>	0
-1.7654985	所 </s>	0
-1.2350794	滩 </s>	0
-1.7396836	能 </s>	0
-1.7881112	在 </s>	0
-1.5483251	绿 </s>	0
-1.4910158	场 </s>	0
-1.0396671	上 </s>	0
-1.6826359	队 </s>	0
-1.5642858	员 </s>	0
-1.7071854	样 </s>	0
-0.818662	跑 </s>	0
-1.2989565	搏 </s>	0
-1.4480861	用 </s>	0
-1.4436603	他 </s>	0
-1.6659652	形 </s>	0
-1.0746856	式 </s>	0
-1.1959977	中 </s>	0
-1.4705862	国 </s>	0
-1.5095837	足 </s>	0
-1.8724022	发 </s>	0
-1.59956	展 </s>	0
-1.5579234	波 </s>	0
-1.4168159	助 </s>	0
-1.0087667	澜 </s>	0
-1.2221576	楼 </s>	0
-1.7006136	高 </s>	0
-1.4655237	多 </s>	0
-1.8021517	可 </s>	0
-1.0894691	人 </s>	0
-1.0728197	心 </s>	0
-1.7788888	是 </s>	0
-1.4271662	来 </s>	0
-1.8762702	没 </s>	0
-1.746845	儿 </s>	0
-1.2654991	光 </s>	0
-1.5685275	们 </s>	0
-1.2415407	玩 </s>	0
-1.5206987	成 </s>	0
-1.167692	物 </s>	0
-1.5255646	犯 </s>	0
-0.9971721	法 </s>	0
-0.8187274	律 </s>	0
-1.2970557	行 </s>	0
-1.5871323	照 </s>	0
-1.1458944	刑 </s>	0
-2.042944	十 </s>	0
-1.7019544	严 </s>	0
-1.0786474	处 </s>	0
-1.419586	理 </s>	0
-1.2098516	额 </s>	0
-1.6521823	回 </s>	0
-1.2350794	扣 </s>	0
-0.65805745	礼 </s>	0
-1.0265734	品 </s>	0
-1.4923319	销 </s>	0
-1.6218265	次 </s>	0
-1.2350794	辞 </s>	0
-0.54295623	绝 </s>	0
-1.6720101	化 </s>	0
-1.4042265	合 </s>	0
-1.6661656	把 </s>	0
-1.7635133	体 </s>	0
-1.3625628	气 </s>	0
-1.531707	进 </s>	0
-1.7765822	特 </s>	0
-1.563413	应 </s>	0
-1.4396191	同 </s>	0
-1.607916	围 </s>	0
-1.5842836	源 </s>	0
-1.0461285	头 </s>	0
-1.188484	服 </s>	0
-1.2721889	务 </s>	0
-1.4457715	重 </s>	0
-1.0973676	点 </s>	0
-1.5941013	开 </s>	0
-1.5244617	工 </s>	0
-1.4260414	作 </s>	0
-1.7025964	好 </s>	0
-1.1212986	果 </s>	0
-1.6286396	少 </s>	0
-1.3832272	读 </s>	0
-1.8773643	也 </s>	0
-1.6292694	很 </s>	0
-1.6137735	见 </s>	0
-1.0087667	稿 </s>	0
-1.7465591	表 </s>	0
-1.2580601	现 </s>	0
-1.202217	性 </s>	0
-1.5647513	画 </s>	0
-0.8283497	象 </s>	0
-1.4573065	隐 </s>	0
-1.1441251	件 </s>	0
-1.609381	度 </s>	0
-0.791877	识 </s>	0
-1.267422	会 </s>	0
-1.694151	新 </s>	0
-0.87698907	例 </s>	0
-1.4426434	闹 </s>	0
-1.7563566	两 </s>	0
-1.7415742	天 </s>	0
-1.4760284	本 </s>	0
-1.1484976	论 </s>	0
-1.590907	文 </s>	0
-1.591176	满 </s>	0
-1.1441251	任 </s>	0
-1.7120249	外 </s>	0
-1.073029	关 </s>	0
-1.525559	内 </s>	0
-1.2045544	空 </s>	0
-1.6645314	花 </s>	0
-1.5565352	园 </s>	0
-1.6701131	别 </s>	0
-1.2989565	鬼 </s>	0
-1.0087667	啦 </s>	0
-1.694151	云 </s>	0
-0.801427	香 </s>	0
-1.0746856	茶 </s>	0
-1.7708266	起 </s>	0
-1.7204585	着 </s>	0
-1.5376092	洋 </s>	0
-1.1016111	馆 </s>	0
-1.6384112	音 </s>	0
-1.2945204	意 </s>	0
-1.6399813	业 </s>	0
-0.85692346	料 </s>	0
-1.2989565	板 </s>	0
-1.5521154	生 </s>	0
-1.7056135	产 </s>	0
-1.1739144	力 </s>	0
-1.3474407	猛 </s>	0
-1.7414765	之 </s>	0
-1.7219883	北 </s>	0
-1.478193	院 </s>	0
-1.638576	科 </s>	0
-1.3490908	明 </s>	0
-1.6333554	母 </s>	0
-1.524795	差 </s>	0
-1.6512243	影 </s>	0
-1.7089152	代 </s>	0
-1.3651679	健 </s>	0
-1.4426434	康 </s>	0
-1.5378177	穷 </s>	0
-1.5245029	富 </s>	0
-1.5665724	案 </s>	0
-0.7505435	裤 </s>	0
-1.4361526	长 </s>	0
-1.6683848	管 </s>	0
-1.5940462	局 </s>	0
-1.6089647	排 </s>	0
-1.496333	迎 </s>	0
-1.5970185	干 </s>	0
-1.4426434	线 </s>	0
-1.6633918	运 </s>	0
-1.1621757	目 </s>	0
-1.7296708	单 </s>	0
-1.5063553	然 </s>	0
-1.188112	乐 </s>	0
-1.6457093	团 </s>	0
-1.0677207	地 </s>	0
-1.1458944	盾 </s>	0
-1.6388309	年 </s>	0
-1.5474743	卡 </s>	0
-1.3108916	情 </s>	0
-1.6451534	金 </s>	0
-1.6173918	做 </s>	0
-1.3097913	动 </s>	0
-1.6577163	群 </s>	0
-1.7205944	前 </s>	0
-1.4022905	范 </s>	0
-1.5768471	期 </s>	0
-1.7292489	将 </s>	0
-1.0308754	户 </s>	0
-1.5665724	备 </s>	0
-0.9152701	战 </s>	0
-1.4271973	名 </s>	0
-1.6453618	岁 </s>	0
-1.319313	身 </s>	0
-1.2652792	米 </s>	0
-1.6968092	七 </s>	0
-1.5477214	军 </s>	0
-1.76136	万 </s>	0
-0.9741426	境 </s>	0
-1.419272	远 </s>	0
-1.6486527	省 </s>	0
-1.5073807	区 </s>	0
-1.4758646	学 </s>	0
-1.7352027	方 </s>	0
-1.3657873	正 </s>	0
-1.6159401	块 </s>	0
-1.6773305	吃 </s>	0
-1.3235834	口 </s>	0
-1.8185182	研 </s>	0
-1.5375398	习 </s>	0
-1.7351646	教 </s>	0
-1.0448776	义 </s>	0
-0.7049774	验 </s>	0
-1.7494066	使 </s>	0
-1.7427564	全 </s>	0
-1.5722367	便 </s>	0
-1.5119221	怕 </s>	0
-1.3857177	津 </s>	0
-0.82037896	钱 </s>	0
-0.938717	手 </s>	0
-1.4731779	水 </s>	0
-0.7079551	掉 </s>	0
-1.6482474	通 </s>	0
-1.4168159	责 </s>	0
-1.0087667	偿 </s>	0
-1.7077991	小 </s>	0
-1.5245029	顾 </s>	0
-1.6569196	语 </s>	0
-1.4168159	洗 </s>	0
-0.7505435	汤 </s>	0
-1.6478609	间 </s>	0
-1.0730847	病 </s>	0
-1.1458944	厉 </s>	0
-1.4994198	害 </s>	0
-1.1690922	流 </s>	0
-1.6613095	南 </s>	0
-1.4417447	望 </s>	0
-1.496333	谈 </s>	0
-1.6104599	华 </s>	0
-1.6053382	日 </s>	0
-1.4168159	束 </s>	0
-0.9692676	断 </s>	0
-1.1538379	面 </s>	0
-1.1838847	切 </s>	0
-1.5324093	看 </s>	0
-1.5474743	汉 </s>	0
-1.0068316	列 </s>	0
-1.2989565	序 </s>	0
-1.4426434	库 </s>	0
-1.7190593	资 </s>	0
-1.6063763	你 </s>	0
-1.496333	烈 </s>	0
-1.5744077	火 </s>	0
-1.1458944	幕 </s>	0
-1.4168159	露 </s>	0
-1.7801317	市 </s>	0
-1.7420666	山 </s>	0
-1.4022905	缘 </s>	0
-1.6969832	突 </s>	0
-1.7213104	飞 </s>	0
-0.7505435	颂 </s>	0
-1.636291	事 </s>	0
-1.5119221	镇 </s>	0
-1.5414973	厂 </s>	0
-1.5565352	苗 </s>	0
-1.6148552	听 </s>	0
-1.1512382	声 </s>	0
-1.6045017	议 </s>	0
-1.3177569	活 </s>	0
-1.2989565	炸 </s>	0
-1.3474407	弹 </s>	0
-1.6144953	求 </s>	0
-1.2350794	孔 </s>	0
-1.5768471	环 </s>	0
-1.4168159	亡 </s>	0
-0.92201823	等 </s>	0
-1.4022905	播 </s>	0
-1.2344791	命 </s>	0
-1.4191277	著 </s>	0
-1.1302862	艺 </s>	0
-1.591176	术 </s>	0
-1.5375398	妹 </s>	0
-1.4323754	浴 </s>	0
-1.6005471	血 </s>	0
-1.0068316	斗 </s>	0
-1.6252344	州 </s>	0
-1.5136477	界 </s>	0
-1.5255646	雄 </s>	0
-1.4022905	桥 </s>	0
-1.6720746	风 </s>	0
-1.315997	称 </s>	0
-1.5492996	整 </s>	0
-1.709943	育 </s>	0
-1.4323754	号 </s>	0
-1.4994198	酒 </s>	0
-1.2989565	笔 </s>	0
-0.9741426	字 </s>	0
-1.5336065	觉 </s>	0
-1.4994198	伤 </s>	0
-1.5492996	段 </s>	0
-1.6968982	比 </s>	0
-1.1923809	税 </s>	0
-1.0490875	元 </s>	0
-1.4168159	弟 </s>	0
-1.7700063	养 </s>	0
-1.5943894	话 </s>	0
-1.5789977	系 </s>	0
-1.3474407	谷 </s>	0
-1.5840602	菜 </s>	0
-0.6239516	息 </s>	0
-1.6571598	烟 </s>	0
-1.5483251	右 </s>	0
-1.6547025	制 </s>	0
-1.5473722	举 </s>	0
-1.4644716	候 </s>	0
-1.3061926	美 </s>	0
-1.487849	显 </s>	0
-1.5337245	冲 </s>	0
-1.2350794	盒 </s>	0
-1.6290135	片 </s>	0
-1.4323754	供 </s>	0
-1.5501405	报 </s>	0
-1.6216938	道 </s>	0
-1.4644716	丧 </s>	0
-1.4323754	访 </s>	0
-1.4783359	坡 </s>	0
-1.0746856	景 </s>	0
-0.92646617	况 </s>	0
-1.2989565	翁 </s>	0
-1.6313806	武 </s>	0
-1.4069629	些 </s>	0
-1.7246057	八 </s>	0
-1.2898903	路 </s>	0
-1.2989565	肝 </s>	0
-1.5119221	扎 </s>	0
-1.3857177	校 </s>	0
-1.4426434	致 </s>	0
-0.8187274	笑 </s>	0
-1.188112	类 </s>	0
-1.4831848	止 </s>	0
-1.4323754	壮 </s>	0
-1.2989565	端 </s>	0
-1.3474407	钩 </s>	0
-1.5492996	数 </s>	0
-1.4426434	丽 </s>	0
-1.4994198	久 </s>	0
-1.2989565	蚕 </s>	0
-1.496333	福 </s>	0
-0.9700029	乡 </s>	0
-1.5686302	闻 </s>	0
-1.4783359	谢 </s>	0
-1.7805302	营 </s>	0
-0.8238995	赏 </s>	0
-0.7505435	姿 </s>	0
-0.7505435	榻 </s>	0
-0.87698907	视 </s>	0
-1.5136477	肥 </s>	0
-1.2989565	桂 </s>	0
-1.3474407	繁 </s>	0
-1.5492996	标 </s>	0
-1.4426434	程 </s>	0
-1.0839493	价 </s>	0
-1.4323754	冬 </s>	0
-1.2350794	栽 </s>	0
-1.3474407	贫 </s>	0
-1.6070265	准 </s>	0
-1.1441251	权 </s>	0
-0.78121245	赛 </s>	0
-1.361292	入 </s>	0
-1.0637467	知 </s>	0
-1.0414703	观 </s>	0
-1.6195403	办 </s>	0
-1.4926575	贸 </s>	0
-1.6228235	感 </s>	0
-0.9773963	容 </s>	0
-1.4323754	练 </s>	0
-1.5133158	注 </s>	0
-1.5474743	乱 </s>	0
-1.3474407	酸 </s>	0
-1.5483251	功 </s>	0
-0.7049774	素 </s>	0
-1.4323754	弄 </s>	0
-1.5970185	食 </s>	0
-1.4481455	坚 </s>	0
-1.2350794	础 </s>	0
-1.2989565	泉 </s>	0
-1.2350794	奖 </s>	0
-1.0087667	罚 </s>	0
-1.1458944	穴 </s>	0
-1.5490346	杂 </s>	0
-1.2350794	杆 </s>	0
-1.4644716	跳 </s>	0
-1.6190329	包 </s>	0
-1.0087667	琴 </s>	0
-1.5095837	亩 </s>	0
-1.2350794	斤 </s>	0
-1.3857177	舍 </s>	0
-1.0068316	牌 </s>	0
-1.4168159	射 </s>	0
-1.273103	难 </s>	0
-1.3474407	豪 </s>	0
-1.3857177	胜 </s>	0
-1.0087667	亭 </s>	0
-1.5136477	丝 </s>	0
-1.126098	器 </s>	0
-1.6117185	矿 </s>	0
-1.4168159	输 </s>	0
-1.2350794	慢 </s>	0
-1.5255646	获 </s>	0
-1.4644716	批 </s>	0
-1.3474407	癌 </s>	0
-0.7505435	症 </s>	0
-1.2989565	章 </s>	0
-1.4426434	轻 </s>	0
-0.7505435	眠 </s>	0
-1.0087667	迁 </s>	0
-1.2350794	窜 </s>	0
-0.74840844	洞 </s>	0
-1.5119221	舞 </s>	0
-1.5683877	思 </s>	0
-1.3651679	稀 </s>	0
-1.5697244	港 </s>	0
-1.1458944	勋 </s>	0
-1.2350794	睛 </s>	0
-1.1199983	职 </s>	0
-1.4426434	击 </s>	0
-1.4926575	零 </s>	0
-1.4644716	吨 </s>	0
-1.3857177	绩 </s>	0
-1.1458944	默 </s>	0
-1.1458944	胞 </s>	0
-1.2350794	堤 </s>	0
-1.3651679	讨 </s>	0
-1.5647513	易 </s>	0
-1.3474407	旧 </s>	0
-1.4323754	坏 </s>	0
-1.0087667	牲 </s>	0
-0.7505435	烁 </s>	0
-1.4994198	乎 </s>	0
-0.42468816	荡 </s>	0
-1.0087667	仔 </s>	0
-1.6310682	采 </s>	0
-1.4771197	具 </s>	0
-0.7505435	详 </s>	0
-1.3180108	迫 </s>	0
-1.4426434	步 </s>	0
-1.1458944	寓 </s>	0
-1.08871	房 </s>	0
-1.3474407	戴 </s>	0
-1.2350794	芳 </s>	0
-1.0087667	倍 </s>	0
-1.0087667	仙 </s>	0
-1.1458944	态 </s>	0
-1.2350794	帘 </s>	0
-1.2350794	室 </s>	0
-1.0401825	苦 </s>	0
-1.4923319	念 </s>	0
-0.6605454	呢 </s>	0
-1.4783359	哭 </s>	0
-1.1458944	股 </s>	0
-1.4426434	烧 </s>	0
-1.4168159	嫂 </s>	0
-0.7505435	丫 </s>	0
-1.3857177	宽 </s>	0
-0.86691713	状 </s>	0
-1.4168159	置 </s>	0
-1.2350794	姓 </s>	0
-1.1458944	涨 </s>	0
-1.3180108	兴 </s>	0
-1.2350794	趣 </s>	0
-1.4783359	密 </s>	0
-0.8187274	复 </s>	0
-1.3474407	构 </s>	0
-1.1458944	铝 </s>	0
-1.2350794	狗 </s>	0
-1.2989565	甜 </s>	0
-1.1683047	冠 </s>	0
-0.7505435	悖 </s>	0
-0.7505435	笨 </s>	0
-1.0087667	址 </s>	0
-0.3781951	胆 </s>	0
-1.1458944	滑 </s>	0
-1.1458944	贺 </s>	0
-0.7505435	叭 </s>	0
-1.1458944	惯 </s>	0
-1.2989565	慕 </s>	0
-1.2350794	捉 </s>	0
-1.0087667	碌 </s>	0
-1.1458944	悉 </s>	0
-1.4323754	币 </s>	0
-1.2350794	寺 </s>	0
-1.2556758	施 </s>	0
-1.1458944	伸 </s>	0
-0.8238995	歌 </s>	0
-1.1458944	答 </s>	0
-1.0087667	善 </s>	0
-1.1458944	归 </s>	0
-1.0087667	踪 </s>	0
-0.7505435	娑 </s>	0
-1.0087667	悟 </s>	0
-1.4573065	柔 </s>	0
-1.2989565	甩 </s>	0
-0.7505435	吗 </s>	0
-0.7505435	耻 </s>	0
-1.1458944	琳 </s>	0
-1.4191277	担 </s>	0
-1.0087667	爆 </s>	0
-1.1458944	峰 </s>	0
-1.3180108	谋 </s>	0
-1.1458944	补 </s>	0
-1.1458944	逝 </s>	0
-0.7505435	糟 </s>	0
-1.1458944	爬 </s>	0
-1.4168159	错 </s>	0
-1.0087667	幻 </s>	0
-0.54484606	衰 </s>	0
-0.7505435	署 </s>	0
-1.0087667	霜 </s>	0
-1.3180108	离 </s>	0
-1.1458944	册 </s>	0
-0.7505435	擒 </s>	0
-0.3781951	蚀 </s>	0
-1.0087667	掘 </s>	0
-1.0087667	呱 </s>	0
-0.7505435	怅 </s>	0
-1.0087667	衫 </s>	0
-2.287316	<s> 要	-0.04578543
-2.4716802	要 要	-0.020034883
-1.4350457	想 要	-0.020034883
-2.0508118	先 要	-0.020034911
-1.9760423	解 要	-0.020034883
-2.0544431	决 要	-0.020034883
-2.4817991	的 要	-0.020034883
-1.8141807	题 要	-0.020034883
-1.9228976	必 要	-0.020034883
-2.2584953	说 要	-0.020034883
-2.5173602	我 要	-0.020034883
-2.3099256	就 要	-0.020034883
-1.8619032	不 要	-0.020034883
-2.5241513	了 要	-0.020034883
-1.7042614	村 要	-0.08752209
-1.8705281	罗 要	-0.020034883
-1.9364368	时 要	-0.06384181
-2.0208416	则 要	-0.020034883
-2.0412707	更 要	-0.020034883
-2.2255874	位 要	-0.020034883
-2.3353417	后 要	-0.020034883
-1.1463761	还 要	-0.020034883
-2.3588042	以 要	-0.020034883
-2.2367492	样 要	-0.020034883
-2.4304996	用 要	-0.020034883
-2.41584	他 要	-0.020034883
-2.4471328	为 要	-0.020034883
-2.4228015	国 要	-0.020034883
-2.2279334	心 要	-0.020034883
-2.1435332	是 要	-0.020034883
-2.2970889	行 要	-0.020034883
-2.4791644	二 要	-0.020034883
-2.081221	回 要	-0.020034883
-2.141448	药 要	-0.020034883
-1.6216595	重 要	-0.020034883
-2.1976664	好 要	-0.020034883
-1.4091073	也 要	-0.020034883
-1.3453422	只 要	-0.020034911
-1.8664677	论 要	-0.020034883
-2.1471174	别 要	-0.020034883
-1.3790612	快 要	-0.020034883
-1.3709329	帐 要	-0.020034883
-2.3288531	着 要	-0.020034883
-0.3347166	需 要	-0.020034883
-1.9855258	业 要	-0.020034883
-1.964579	直 要	-0.020034883
-1.839368	导 要	-0.020034883
-1.7517202	族 要	-0.020034883
-1.9110949	图 要	-0.020034883
-1.9033488	案 要	-0.020034883
-1.9581443	干 要	-0.020034883
-2.3773212	年 要	-0.020034883
-1.8797702	卡 要	-0.020034883
-1.8774523	统 要	-0.020034883
-2.2270777	民 要	-0.020034883
-1.7809906	将 要	-0.08752209
-1.8182416	习 要	-0.020034883
-1.7865307	般 要	-0.020034883
-1.8915617	愿 要	-0.020034883
-1.810066	饭 要	-0.020034883
-2.3392797	日 要	-0.020034883
-1.8824387	又 要	-0.020034883
-2.261039	看 要	-0.020034883
-1.961904	你 要	-0.020034883
-0.69072247	主 要	-0.020034883
-2.3044143	山 要	-0.020034883
-2.1073506	尔 要	-0.020034883
-1.925353	仍 要	-0.020034883
-1.1516722	既 要	-0.020034883
-2.1189418	风 要	-0.020034883
-1.7219326	察 要	-0.020034883
-2.2067375	她 要	-0.020034883
-2.1340024	但 要	-0.020034883
-1.4537698	都 要	-0.020034911
-2.2090063	元 要	-0.020034883
-1.8733268	系 要	-0.020034883
-2.0125787	路 要	-0.020034883
-1.5261673	槐 要	-0.020034883
-1.7865307	师 要	-0.020034883
-1.9508033	么 要	-0.020034883
-1.8624449	权 要	-0.08752209
-2.0162065	赛 要	-0.020034883
-2.0382538	受 要	-0.020034883
-1.5308071	偏 要	-0.020034883
-1.8353187	即 要	-0.020034883
-1.5261673	概 要	-0.020034883
-1.3661175	奖 要	-0.020034883
-1.7865307	您 要	-0.020034883
-1.7823483	仅 要	-0.020034911
-1.2494273	齐 要	-0.020034883
-1.3661175	哥 要	-0.020034883
-1.5261673	盗 要	-0.020034883
-1.0817443	泡 要	-0.020034883
-1.4549327	喝 要	-0.020034883
-1.6401126	购 要	-0.08752209
-1.0817443	胁 要	-0.020034883
-1.0817443	廷 要	-0.020034883
-1.0817443	虎 要	-0.020034883
-2.8014567	要 想	-0.020034883
-2.434157	还 想	-0.020034883
-2.4599433	样 想	-0.020034883
-2.7069747	他 想	-0.020034883
-2.6843371	越 想	-0.020034883
-2.5564432	可 想	-0.020034883
-2.3638086	没 想	-0.020034883
-2.1031651	处 想	-0.020034883
-2.3176982	理 想	-0.020034883
-2.1395142	曾 想	-0.020034883
-2.2263107	回 想	-0.020034883
-2.3978634	头 想	-0.020034883
-2.5514166	因 想	-0.020034883
-2.2841275	只 想	-0.020034883
-2.0474322	设 想	-0.020034883
-2.0426643	便 想	-0.020034883
-1.6313117	梦 想	-0.020034883
-1.039075	思 想	-0.020034883
-1.8203932	奇 想	-0.020034883
-1.0953445	毅 想	-0.020034883
-0.79617107	忑 想	-0.020034883
-2.1742132	想 扶	-0.020034883
-2.4902892	还 扶	-0.020034883
-1.0958831	扶 优	-0.020034883
-1.0881149	谁 优	-0.08752209
-3.2134356	的 优	-0.020034883
-3.0156083	有 优	-0.020034883
-2.161183	传 优	-0.020034883
-1.9516965	件 优	-0.020034883
-2.429237	给 优	-0.020034883
-2.6941147	生 优	-0.020034883
-1.9549835	统 优	-0.020034883
-2.5296183	军 优	-0.020034883
-2.1776261	省 优	-0.020034883
-2.4100468	当 优	-0.020034883
-2.56696	等 优	-0.020034883
-2.4782338	育 优	-0.020034883
-1.4900129	冒 优	-0.020034883
-1.7823517	批 优	-0.020034883
-1.4900129	充 优	-0.020034883
-0.79644144	瑰 优	-0.020034883
-2.050281	优 汰	-0.020034883
-0.79784864	淘 汰	-0.020034883
-1.2738963	汰 劣	-0.020034883
-1.7943369	谁 劣	-0.020034883
-3.0159488	为 劣	-0.020034883
-1.4949068	伪 劣	-0.020034883
-1.8724405	恶 劣	-0.020034883
-1.5661778	劣 首	-0.020034883
-2.7073278	子 首	-0.020034883
-2.6426597	出 首	-0.020034883
-2.6394048	月 首	-0.020034883
-1.9643767	王 首	-0.08752209
-2.3425002	队 首	-0.020034883
-2.7564998	国 首	-0.020034883
-2.8552272	是 首	-0.020034883
-2.029467	质 首	-0.020034883
-2.557948	因 首	-0.020034883
-2.8244	外 首	-0.020034883
-2.146512	保 首	-0.020034883
-2.3270159	亚 首	-0.020034883
-2.1729908	州 首	-0.020034883
-1.6324427	居 首	-0.020034883
-0.7883836	昂 首	-0.020034883
-1.0957036	榜 首	-0.020034883
-0.7963513	匕 首	-0.020034883
-0.7963513	锨 首	-0.020034883
-3.2692602	<s> 先	-0.020034883
-2.0226026	优 先	-0.020034883
-0.6513507	首 先	-0.087084666
-3.151575	的 先	-0.020034883
-2.536363	就 先	-0.020034883
-2.6308389	时 先	-0.020034883
-2.4492898	进 先	-0.020034883
-2.3840454	特 先	-0.020034883
-1.7677097	原 先	-0.020034883
-2.387202	好 先	-0.020034883
-2.0482044	科 先	-0.020034883
-2.0051177	领 先	-0.020034883
-2.3905437	前 先	-0.020034883
-2.344633	望 先	-0.020034883
-0.796081	姚 先	-0.020034883
-2.3259993	已 先	-0.020034883
-2.1004133	野 先	-0.020034883
-1.8564826	率 先	-0.020034883
-1.7799748	抢 先	-0.020034883
-1.8565072	贵 先	-0.020034883
-1.3923296	险 先	-0.020034883
-0.796081	胄 先	-0.020034883
-3.3297787	<s> 解	-0.020034883
-2.821132	要 解	-0.020034883
-3.2134356	的 解	-0.020034883
-2.1609488	未 解	-0.020034883
-2.9612455	了 解	-0.020034883
-2.4164176	村 解	-0.020034883
-2.0474584	布 解	-0.020034883
-2.7234411	他 解	-0.020034883
-1.4117675	理 解	-0.020034911
-2.8345919	也 解	-0.020034883
-2.1586375	见 解	-0.020034883
-2.6941147	生 解	-0.020034883
-2.3621476	此 解	-0.020034883
-1.6320958	押 解	-0.020034883
-1.5667088	讲 解	-0.020034883
-2.273849	并 解	-0.020034883
-1.9241456	织 解	-0.020034883
-2.0272322	瓦 解	-0.020034883
-0.9095325	解 决	-0.12493875
-2.82538	的 决	-0.020034883
-1.5672345	判 决	-0.020034883
-2.0695314	下 决	-0.08752209
-1.1663098	否 决	-0.020034883
-2.83788	是 决	-0.020034883
-2.5135896	作 决	-0.020034883
-1.7807927	取 决	-0.020034883
-2.263018	表 决	-0.020034883
-2.4462657	起 决	-0.020034883
-1.997828	强 决	-0.020034883
-2.5459654	长 决	-0.020034883
-1.6952391	公 决	-0.020034883
-2.197754	近 决	-0.020034883
-1.735779	泳 决	-0.020034883
-2.1709158	身 决	-0.020034883
-2.49539	过 决	-0.020034883
-2.298184	病 决	-0.020034883
-1.8574423	考 决	-0.020034883
-1.8553545	究 决	-0.020034883
-1.9187622	即 决	-0.020034883
-3.484092	<s> 谁	-0.020034883
-2.0393527	优 谁	-0.08752209
-2.1797473	决 谁	-0.020034883
-2.416169	定 谁	-0.020034883
-2.6004617	可 谁	-0.020034883
-2.5294507	对 谁	-0.020034883
-2.6144853	天 谁	-0.020034883
-2.0619779	户 谁	-0.020034883
-1.6941957	露 谁	-0.020034883
-1.2725451	楚 谁	-0.020034883
-2.0662625	<s> 的	-0.020034883
-1.3714991	劣 的	-0.020034883
-1.6858298	首 的	-0.020034883
-1.7335365	决 的	-0.020034883
-1.560623	题 的	-0.020034883
-1.0382493	定 的	-0.020034883
-1.7688444	得 的	-0.020034883
-1.4016299	有 的	-0.029759087
-1.3714991	衡 的	-0.020034883
-1.1230817	量 的	-0.020034911
-1.3494465	子 的	-0.020034911
-1.7552829	说 的	-0.020034883
-1.0756109	我 的	-0.029057262
-1.5091885	赶 的	-0.020034883
-1.5388027	出 的	-0.020034911
-1.5710639	去 的	-0.020034883
-1.6742231	才 的	-0.08752209
-1.8399618	到 的	-0.020034883
-1.6143758	土 的	-0.020034883
-0.9616857	里 的	-0.020034883
-1.585596	啊 的	-0.020034883
-1.6671046	和 的	-0.020034883
-1.2253305	家 的	-0.020034883
-1.3271215	下 的	-0.020034911
-1.4048291	住 的	-0.020034883
-1.5752788	己 的	-0.020034883
-1.7591313	村 的	-0.020034883
-1.5529145	部 的	-0.020034883
-1.5848488	记 的	-0.020034883
-1.6133997	布 的	-0.020034883
-1.0170065	灾 的	-0.020034883
-1.6567172	时 的	-0.020034883
-1.5667223	种 的	-0.020034883
-1.5322105	月 的	-0.020034911
-1.7558644	损 的	-0.020034883
-1.2405642	大 的	-0.020034883
-1.765434	王 的	-0.020034883
-1.6369469	后 的	-0.020034883
-1.6133997	众 的	-0.020034883
-1.4595848	怒 的	-0.020034883
-1.683511	死 的	-0.020034883
-1.7932632	能 的	-0.020034883
-1.1584406	绿 的	-0.020034883
-1.160864	茵 的	-0.020034883
-1.5221671	场 的	-0.020034883
-1.1270653	上 的	-0.032719318
-1.7314872	队 的	-0.020034883
-1.7822938	员 的	-0.020034883
-1.1179355	样 的	-0.020034883
-1.6500493	跑 的	-0.020034883
-1.5554931	用 的	-0.020034883
-1.0068034	他 的	-0.020034883
-1.0861037	式 的	-0.020034883
-1.7507418	为 的	-0.020034883
-1.4160846	中 的	-0.020034883
-1.6203868	国 的	-0.020034911
-0.9357631	球 的	-0.020034883
-1.5961661	波 的	-0.020034883
-1.6313405	楼 的	-0.020034883
-1.7034671	越 的	-0.020034883
-1.3851938	高 的	-0.020034911
-1.6191483	多 的	-0.06384181
-1.1217811	人 的	-0.020034883
-1.371403	心 的	-0.020034911
-1.6982156	却 的	-0.020034883
-1.2661399	来 的	-0.020034883
-1.9182878	没 的	-0.020034883
-1.2957281	儿 的	-0.020034883
-1.8015887	往 的	-0.020034883
-1.7242544	光 的	-0.020034883
-1.0196319	溜 的	-0.020034883
-1.4809788	们 的	-0.020034883
-1.5462047	成 的	-0.06384181
-1.3505373	物 的	-0.020034911
-1.7406046	法 的	-0.020034883
-1.5977058	行 的	-0.020034911
-2.094851	十 的	-0.020034883
-1.6503083	处 的	-0.020034883
-1.6331618	额 的	-0.020034883
-1.495003	品 的	-0.020034883
-1.6682439	次 的	-0.020034883
-1.4714147	化 的	-0.020034883
-1.2549256	合 的	-0.020034911
-1.0196319	蟹 的	-0.020034883
-1.8114971	体 的	-0.020034883
-1.0179956	气 的	-0.020034883
-1.2426609	放 的	-0.020034911
-1.560008	进 的	-0.020034883
-1.8238593	特 的	-0.020034883
-1.6313405	反 的	-0.020034883
-1.6503083	围 的	-0.020034883
-1.6237736	源 的	-0.020034883
-1.752218	头 的	-0.020034883
-1.7411574	务 的	-0.020034883
-1.4695113	重 的	-0.020034883
-1.2875602	点 的	-0.020034911
-1.8509924	开 的	-0.020034883
-1.4486384	作 的	-0.020034911
-1.7525468	好 的	-0.020034883
-1.6748259	少 的	-0.020034883
-1.0288831	质 的	-0.020034911
-1.9333454	也 的	-0.020034883
-1.7226324	现 的	-0.020034883
-1.6051772	画 的	-0.020034883
-0.7565052	喻 的	-0.020034883
-1.3008175	某 的	-0.020034883
-1.585596	件 的	-0.020034883
-1.522223	识 的	-0.020034883
-1.4377865	会 的	-0.020034911
-1.3360661	新 的	-0.020034911
-1.6048713	天 的	-0.020034883
-1.7473391	本 的	-0.020034883
-1.5961643	论 的	-0.020034883
-1.6633074	集 的	-0.020034883
-1.3570961	算 的	-0.020034883
-1.1914623	圆 的	-0.020034883
-1.4625958	外 的	-0.020034883
-1.6566429	设 的	-0.020034883
-1.7668507	关 的	-0.020034883
-1.7707491	内 的	-0.020034883
-1.7036055	空 的	-0.020034883
-1.7190075	别 的	-0.020034883
-1.560623	变 的	-0.020034883
-1.6361669	快 的	-0.020034883
-1.7447141	老 的	-0.020034883
-1.5091885	班 的	-0.020034883
-1.585596	碗 的	-0.020034883
-1.5581399	起 的	-0.020034911
-1.7761639	着 的	-0.020034883
-1.3377602	溢 的	-0.020034883
-1.3204095	郁 的	-0.020034883
-1.5961678	强 的	-0.020034883
-1.2535349	劲 的	-0.020034883
-1.7485818	意 的	-0.020034883
-1.6920809	需 的	-0.020034883
-1.6798196	业 的	-0.020034911
-1.3714991	薄 的	-0.020034883
-1.3204095	板 的	-0.020034883
-1.3347309	生 的	-0.020034883
-1.3343999	产 的	-0.020034911
-1.6948817	力 的	-0.020034883
-1.7483174	分 的	-0.020034883
-1.3611493	院 的	-0.020034911
-1.0196319	蓄 的	-0.020034883
-1.5221516	明 的	-0.020034911
-1.6689198	母 的	-0.020034883
-1.5577862	差 的	-0.020034883
-0.868611	代 的	-0.020034883
-1.3877423	健 的	-0.020034883
-1.4728074	康 的	-0.020034883
-1.2274257	领 的	-0.020034883
-1.5406159	爱 的	-0.020034883
-1.0554228	穿 的	-0.020034883
-1.7306408	白 的	-0.020034883
-1.3791586	色 的	-0.020034883
-1.4864404	彩 的	-0.020034883
-1.6057115	案 的	-0.020034883
-1.5939033	长 的	-0.020034883
-1.6586504	司 的	-0.020034883
-1.6779155	近 的	-0.020034883
-1.5961661	客 的	-0.020034883
-1.4728074	线 的	-0.020034883
-1.691793	运 的	-0.020034883
-1.3718575	目 的	-0.020034883
-1.0196319	赫 的	-0.020034883
-1.7631572	印 的	-0.020034883
-1.5961678	余 的	-0.020034883
-1.4120613	妙 的	-0.020034883
-1.6904907	地 的	-0.020034883
-1.7582414	游 的	-0.020034883
-1.3791586	者 的	-0.020034883
-1.4728074	售 的	-0.020034883
-1.6792995	年 的	-0.020034883
-1.5862509	卡 的	-0.020034883
-1.6609526	做 的	-0.020034883
-1.7431134	动 的	-0.020034883
-1.6987655	群 的	-0.020034883
-1.5959058	勇 的	-0.020034883
-1.7700715	前 的	-0.020034883
-1.7507669	建 的	-0.020034883
-1.3714991	筑 的	-0.020034883
-1.7225059	阳 的	-0.020034883
-1.173068	统 的	-0.020034911
-1.160864	宅 的	-0.020034883
-1.748188	民 的	-0.020034883
-1.4728074	票 的	-0.020034883
-1.5001954	存 的	-0.020034883
-1.6057115	备 的	-0.020034883
-1.7736602	战 的	-0.020034883
-1.7540728	亚 的	-0.020034883
-1.4962487	兰 的	-0.020034883
-1.6735305	奥 的	-0.020034883
-1.7172805	名 的	-0.020034883
-0.5631875	岁 的	-0.04138624
-1.6848876	身 的	-0.020034883
-1.6252258	计 的	-0.020034883
-1.5809414	军 的	-0.020034883
-1.2535349	订 的	-0.020034883
-1.0952497	远 的	-0.020034883
-1.0221285	区 的	-0.020034883
-1.6407741	学 的	-0.020034883
-1.1532786	过 的	-0.020034911
-1.7864366	方 的	-0.020034883
-1.691087	正 的	-0.020034883
-1.3204095	嫩 的	-0.020034883
-1.7233125	吃 的	-0.020034883
-1.8481314	研 的	-0.020034883
-1.378186	教 的	-0.020034883
-1.6154695	佛 的	-0.020034883
-1.4741446	验 的	-0.020034883
-1.4451802	证 的	-0.020034883
-1.0819913	般 的	-0.020034883
-1.6133997	便 的	-0.020034883
-1.5718873	指 的	-0.020034883
-1.5359732	脸 的	-0.020034883
-1.5032212	水 的	-0.020034883
-1.5961661	它 的	-0.020034883
-1.7604077	小 的	-0.020034883
-1.6354375	言 的	-0.020034883
-1.5493956	饭 的	-0.020034883
-1.2081628	间 的	-0.020034911
-1.7290815	病 的	-0.08752209
-1.4962487	润 的	-0.020034883
-1.6063132	流 的	-0.020034883
-1.668608	打 的	-0.020034883
-1.4595848	仰 的	-0.020034883
-1.8369484	日 的	-0.020034883
-1.2180818	洲 的	-0.020034883
-1.4451802	束 的	-0.020034883
-1.629514	古 的	-0.020034883
-1.1668013	面 的	-0.020034883
-1.7669164	当 的	-0.020034883
-1.1876179	扬 的	-0.020034883
-1.0196319	啡 的	-0.020034883
-1.3877423	握 的	-0.020034883
-1.2585162	你 的	-0.020034883
-1.4962487	夏 的	-0.020034883
-1.051243	烈 的	-0.020034911
-1.6143758	火 的	-0.020034883
-1.7330875	委 的	-0.020034883
-1.3714991	厅 的	-0.020034883
-1.3960963	市 的	-0.020034911
-1.7722092	机 的	-0.020034883
-1.7100756	装 的	-0.020034883
-1.0196319	卸 的	-0.020034883
-1.7956041	山 的	-0.020034883
-1.5457141	确 的	-0.020034883
-1.160864	策 的	-0.020034883
-1.7592527	飞 的	-0.020034883
-1.6810967	事 的	-0.020034883
-1.2535349	殊 的	-0.020034883
-1.4315815	厂 的	-0.020034911
-1.5961678	苗 的	-0.020034883
-1.6883845	声 的	-0.020034883
-1.6057115	派 的	-0.020034883
-1.6429796	议 的	-0.020034883
-1.3351011	活 的	-0.020034883
-1.6600934	求 的	-0.020034883
-1.5493956	钻 的	-0.020034883
-1.405781	尔 的	-0.020034883
-1.6905078	除 的	-0.020034883
-1.6380677	雨 的	-0.020034883
-1.4042319	钦 的	-0.020034883
-1.0459317	命 的	-0.020034911
-1.4120613	邦 的	-0.020034883
-1.4427948	著 的	-0.020034883
-1.6342679	术 的	-0.020034883
-1.5718873	妹 的	-0.020034883
-0.97852516	徒 的	-0.020034883
-1.5493956	界 的	-0.020034883
-1.5164161	士 的	-0.020034883
-1.784625	英 的	-0.020034883
-1.6588962	世 的	-0.020034883
-1.6423048	野 的	-0.020034883
-1.3335103	称 的	-0.020034883
-1.1391747	整 的	-0.020034911
-1.3980982	育 的	-0.020034911
-1.0196319	冕 的	-0.020034883
-1.6174582	负 的	-0.020034883
-1.2535349	枝 的	-0.020034883
-1.5411155	爷 的	-0.020034883
-1.6844835	带 的	-0.020034883
-1.1663208	娘 的	-0.020034883
-1.0328717	觉 的	-0.020034883
-1.5339684	伤 的	-0.020034883
-1.1846279	她 的	-0.020034883
-1.7009155	转 的	-0.020034883
-1.5575124	率 的	-0.020034883
-1.6400722	格 的	-0.020034883
-0.837267	静 的	-0.020034911
-1.6254517	税 的	-0.020034883
-1.349968	元 的	-0.020034911
-1.8200139	养 的	-0.020034883
-1.4120613	吕 的	-0.020034883
-1.6333791	话 的	-0.020034883
-1.5862509	牛 的	-0.020034883
-1.5752788	肉 的	-0.020034883
-1.6154695	午 的	-0.020034883
-1.7018834	红 的	-0.020034883
-1.6500493	青 的	-0.020034883
-1.0194364	菜 的	-0.020034911
-1.6848892	马 的	-0.020034883
-1.5411155	模 的	-0.020034883
-1.7028673	烟 的	-0.020034883
-1.5575124	秧 的	-0.020034883
-1.372262	制 的	-0.020034883
-1.5339684	森 的	-0.020034883
-1.4957399	美 的	-0.020034883
-1.3377602	昂 的	-0.020034883
-1.6143758	木 的	-0.020034883
-1.5164161	树 的	-0.020034883
-1.5636157	冲 的	-0.020034883
-1.2535349	盒 的	-0.020034883
-1.3436421	片 的	-0.020034883
-1.4719199	海 的	-0.020034883
-1.4962487	丧 的	-0.020034883
-1.4595848	访 的	-0.020034883
-1.2535349	脏 的	-0.020034883
-1.0196319	兮 的	-0.020034883
-1.3204095	魂 的	-0.020034883
-1.2034794	类 的	-0.020034883
-1.5411155	喜 的	-0.020034883
-1.585596	曲 的	-0.020034883
-1.4728074	丽 的	-0.020034883
-1.5339684	久 的	-0.020034883
-1.5457141	桑 的	-0.020034883
-1.5287299	福 的	-0.020034883
-1.6556137	县 的	-0.020034883
-1.1875304	乡 的	-0.020034883
-1.5630695	尼 的	-0.020034883
-1.8250581	营 的	-0.020034883
-1.0196319	畔 的	-0.020034883
-1.4962487	皮 的	-0.020034883
-1.5493956	肥 的	-0.020034883
-1.160864	嘟 的	-0.020034883
-1.2256123	网 的	-0.020034883
-1.42733	殖 的	-0.020034883
-1.0842874	鱼 的	-0.020034883
-1.5848488	标 的	-0.020034883
-1.4120613	腾 的	-0.020034883
-1.5091885	旁 的	-0.020034883
-1.4120613	竹 的	-0.020034883
-1.5007867	革 的	-0.020034883
-1.160864	茂 的	-0.020034883
-1.6425909	准 的	-0.020034883
-1.7081648	加 的	-0.020034883
-1.6790439	观 的	-0.020034883
-1.6572361	办 的	-0.020034883
-1.2535349	熟 的	-0.020034883
-1.160864	凤 的	-0.020034883
-1.3714991	霞 的	-0.020034883
-1.5752788	哈 的	-0.020034883
-1.6627493	拉 的	-0.020034883
-0.98284703	埃 的	-0.020034883
-1.585596	功 的	-0.020034883
-1.3877423	幽 的	-0.020034883
-1.2535349	侯 的	-0.020034883
-1.5287299	忘 的	-0.020034883
-1.6380677	食 的	-0.020034883
-1.5287299	低 的	-0.020034883
-1.0196319	袋 的	-0.020034883
-1.4451802	升 的	-0.020034883
-1.5091885	降 的	-0.020034883
-1.3204095	浪 的	-0.020034883
-0.9615664	似 的	-0.020034911
-0.7565052	丛 的	-0.020034883
-1.207318	雅 的	-0.020034883
-1.0861037	俗 的	-0.020034883
-1.2535349	杆 的	-0.020034883
-1.4728074	巴 的	-0.020034883
-1.1876179	造 的	-0.020034883
-0.8250236	阔 的	-0.020034883
-1.4451802	脱 的	-0.020034883
-1.7336738	减 的	-0.020034883
-1.5091885	秋 的	-0.020034883
-1.2721549	献 的	-0.020034883
-1.3877423	亏 的	-0.020034883
-1.1391747	织 的	-0.020034883
-1.3877423	植 的	-0.020034883
-1.0819913	您 的	-0.020034883
-1.160864	疗 的	-0.020034883
-1.5848488	器 的	-0.020034883
-1.0767598	矿 的	-0.020034911
-1.4962487	顶 的	-0.020034883
-1.560623	获 的	-0.020034883
-1.3204095	章 的	-0.020034883
